81 50
关联规则挖掘 -0.10232468 0.33810574 0.2739952 0.051858865 -0.3507842 0.17026079 -0.04233693 0.14924392 -0.100711964 -0.02609442 -0.32181713 0.13231938 -0.114582375 0.2750509 -0.13268948 -0.1909553 0.24719195 0.10427534 0.104249604 0.084571145 0.18396406 0.088812 0.09014126 -0.14648002 -0.04275507 0.18788709 -0.027398678 0.042013243 0.37839684 -0.23024626 0.22912467 -0.34051472 -0.17755266 -0.15895593 -0.15718648 0.07009761 0.17034175 0.14459738 0.055531256 -0.07829992 -0.18457074 -0.27463812 0.2820908 0.1205567 0.16240263 0.26301613 -0.05133617 -0.19465946 -0.29058248 0.089924455
基本框架 -0.008486675 0.12210362 0.1342802 0.1288147 -0.24148117 0.23481965 0.06626208 0.04706538 -0.39277232 0.06282052 -0.25108027 0.020106925 -0.47631904 0.44840664 0.14820078 0.07204728 0.4681251 -0.13849284 -0.041760758 0.23995069 -0.06796556 0.13630569 -0.0442104 0.20646977 -0.033206824 -0.23470888 0.13891152 0.27371547 0.6143921 -0.22151656 0.08952531 -0.6621271 0.10026971 -0.52937025 -0.24734214 0.02428582 -0.011226824 0.0031818424 -0.116449445 0.07771195 -0.1719178 -0.44918036 0.22288346 0.21667576 0.50302464 0.39044595 0.078136645 -0.2529208 -0.71820194 0.14486231
分类 -0.27364784 0.49365714 0.0854548 -0.06552086 -0.55370337 0.2112711 -0.24727881 -0.042517815 -0.06091663 -0.041758575 -0.51122355 0.6119512 0.16034287 0.5765777 -0.6688543 -0.58544296 0.25703654 0.6532106 0.291894 0.33774835 0.53048456 0.0137772495 0.3145478 -0.42491835 -0.16871195 0.7651025 -0.22913408 -0.023873053 0.28202537 -0.63482785 0.15182416 -0.39352748 -0.1494864 -0.11551687 -0.0384166 0.18496661 0.4055066 0.3701835 0.10014927 -0.48661086 -0.23531441 -0.47394034 0.40401414 0.31563866 -0.10999112 0.22886501 -0.19333659 -0.2824256 -0.089430176 0.54031986
1.频繁项集发现 -0.31543067 0.23430188 0.024353813 0.21186447 -0.08564235 0.2698058 0.14328662 0.069265656 -0.45915148 0.21666707 -0.44476688 -0.11202686 -0.40270615 0.5841529 0.11460297 0.013465969 0.45577425 -0.23255898 -0.29564777 0.116068386 -0.0917043 0.33016455 -0.19856466 0.24634652 -0.020106474 -0.23965238 0.50689125 0.14072919 0.8512064 -0.17518547 0.11995278 -0.79223657 0.32703292 -0.8103235 -0.34125483 0.100134194 0.11539667 0.045352753 -0.2023207 0.031197174 -0.25797045 -0.464953 0.2728317 0.15787578 0.37697747 0.23367772 -0.28823653 -0.4092104 -0.7011336 0.33506358
朴素的频繁项集挖掘 -0.33784536 0.15357247 -0.09538534 0.15220872 -0.104630135 0.29826486 0.0967341 -0.096515775 -0.5980072 0.41708148 -0.49991846 -0.009358998 -0.53923887 0.6842821 0.018888716 0.031921852 0.5841309 -0.18103991 -0.23498783 0.23872623 0.005634092 0.358852 -0.16255142 0.25488886 -0.21292013 -0.33747968 0.5627079 0.24222355 0.8834203 -0.25635305 0.14051123 -0.9638719 0.38672403 -0.8797799 -0.2907756 0.2603533 0.19329788 0.04926646 -0.21892989 0.005049322 -0.22927119 -0.51206857 0.26927763 0.233652 0.49324688 0.221589 -0.3552661 -0.33838758 -0.77111983 0.42649674
项集 0.25340626 0.29342273 0.57620865 0.34735122 -0.6414496 0.2722518 0.29910228 0.57982266 0.23573534 -0.5546217 -0.43119785 0.011782488 -0.0820655 0.22963543 0.31446096 -0.3245369 0.10762377 -0.16976915 0.14323755 -0.23152886 -0.11158503 0.022051806 -0.22636898 -0.19728036 0.2252031 0.15692592 -0.039475594 0.12324682 0.73516494 0.0018247915 0.896381 -0.2210196 -0.06502133 -0.22783172 -0.559196 -0.533318 0.14005488 -0.04391664 -0.34689155 0.072397426 -0.55604917 -0.28757656 0.89446896 -0.15977965 0.43208802 0.5508326 0.090284236 -0.42963275 -0.9014326 0.008242407
2.关联规则产生 0.1498773 0.25989467 0.49169675 0.10106118 -0.34982988 0.18286319 0.065710984 0.24554697 -0.19006124 -0.19839495 -0.25100037 0.04485744 -0.41089803 0.17830555 -0.003796625 -0.048220854 0.36150354 -0.031660378 0.040664945 0.105410315 0.04223547 -0.019826017 0.041575156 -0.06461809 -0.018939206 -0.0016455535 -0.18871945 0.28051695 0.505381 -0.30124053 0.08522633 -0.43920323 -0.2824467 -0.19688697 -0.31118724 -0.013935252 0.0071206554 -0.06880268 0.022465648 0.09853414 -0.27243605 -0.31262887 0.26235738 0.2256673 0.4042643 0.48908728 0.30191424 -0.22885375 -0.72993547 -0.10873824
基于所挖掘的数据类型和特性 -0.47737852 0.46638054 0.099383764 -0.2071357 -0.69465905 0.14066961 0.024026984 0.5130402 0.18540925 -0.24467392 -0.24624412 0.7916103 -0.26692513 0.6664791 -0.59278893 -0.31203955 -0.20784695 0.4965327 -0.06884452 0.14589997 0.4061531 0.29618034 0.043503657 -0.16108331 -0.2980257 0.8852826 -0.41498798 -0.03215307 0.5942343 -0.81869364 -0.0024818918 -0.40403715 -0.035553984 -0.35677034 -0.43859106 0.1925515 0.38532913 0.37793922 -0.20664468 -0.54688686 -0.044522967 -0.7782962 0.1894206 0.48097795 -0.16876471 0.44283777 -0.12709038 -0.33248535 0.052836798 0.3869357
事务 0.09893693 0.3255086 0.4916769 0.17886811 -0.58001465 0.22201927 0.21426177 0.45347103 0.08655718 -0.41977724 -0.37939647 0.07229562 0.17834617 0.17302397 0.17272836 -0.3616862 0.16651903 -0.13358282 0.03785304 -0.1767508 0.03845187 0.05262528 -0.014594062 -0.2252475 0.23282385 0.19296002 -0.027509607 -0.042006124 0.4933316 0.06100801 0.664575 -0.24916872 -0.14027275 -0.13012071 -0.41582137 -0.19190638 0.06734496 0.02768142 -0.07276315 0.025987351 -0.41216233 -0.24187684 0.7448915 0.01224981 0.3102449 0.3009699 0.020920845 -0.37586698 -0.40662476 0.030158676
基于规则所涉及的维数 -0.15746346 0.17136393 0.24143544 0.33967412 -0.72155505 0.64031535 -0.55914754 -0.16154851 -0.1265759 0.22699337 -0.7579503 0.44675407 0.29015264 0.31274554 -0.42818922 -0.5477791 0.50651544 0.7188083 0.28867993 0.5622424 0.5358417 -0.14716 0.44301817 -0.7272435 -0.12359633 0.43767467 -0.14992389 0.07546916 0.33990565 -0.5011278 0.52363694 -0.9093893 -0.43837228 0.125202 0.24326706 0.084298566 0.33677065 0.19799833 0.27493203 -0.38989276 -0.37207073 0.08028131 0.5901043 0.28098348 0.12810194 0.43715882 -0.63601893 -0.21463762 -0.67387754 0.4562231
维 -0.12180461 0.14721708 0.22478832 0.3322418 -0.7658517 0.64745796 -0.6516694 -0.13978507 -0.15324786 0.20664959 -0.8325434 0.43221274 0.27400696 0.38855842 -0.44032672 -0.54676986 0.5827582 0.65324247 0.25491947 0.5424516 0.5254752 -0.18774442 0.48164946 -0.7503433 -0.11799996 0.42662528 -0.17566246 0.063406795 0.3568971 -0.46008694 0.55610526 -0.8867919 -0.39128008 0.0681057 0.25417396 0.034116026 0.3321166 0.13774195 0.30174088 -0.3518815 -0.44186565 0.107492566 0.62759024 0.27941263 0.17945114 0.34823903 -0.68574274 -0.20609301 -0.710087 0.5108296
按照多维数据库使用的术语，通常将规则中的不同谓词称作维 -0.18018778 0.13252874 0.26885945 0.38815135 -0.6602846 0.63299865 -0.6033853 -0.15687944 -0.21147811 0.20478934 -0.78459966 0.43380377 0.32461044 0.33719888 -0.44152483 -0.5615864 0.53627855 0.73790586 0.26042643 0.55979943 0.51283646 -0.18408275 0.39333093 -0.7033205 -0.16820987 0.42126408 -0.08390681 0.07829281 0.35913378 -0.43685114 0.55194074 -0.9423374 -0.37660858 0.102039024 0.30979055 0.050908852 0.32734364 0.13901177 0.31222105 -0.3124368 -0.42812172 0.08216919 0.605095 0.3096109 0.13773432 0.4286922 -0.63871056 -0.18086319 -0.7292539 0.47749764
频繁项集 0.10091566 0.25184855 0.2761737 0.284757 -0.3910684 0.20906891 0.20589313 0.32971537 -0.017497791 -0.33925498 -0.36706766 0.059182785 -0.1749784 0.27995783 0.32243106 -0.0534769 0.15554105 -0.16351524 -0.027697872 -0.07916815 -0.1671804 0.1269881 -0.21594742 -0.08387547 0.15594406 0.062678196 0.09891324 0.0970847 0.6411831 -0.029300788 0.5384832 -0.30291095 0.036039054 -0.3007447 -0.4270556 -0.36214185 0.09690671 -0.043789282 -0.25618532 0.07452691 -0.42583922 -0.19053808 0.51440847 -0.05074944 0.34164533 0.40409082 0.031934123 -0.31814557 -0.62143904 0.12408961
1.计算出每个项集的支持度 -0.38152546 0.08303365 0.14475562 0.25980243 -0.24081823 0.44929567 0.089565724 -0.060535055 -0.6126679 0.54380524 -0.29550314 -0.015021594 -0.6711771 0.8416716 0.25831205 -0.05127881 0.3817493 -0.28745916 -0.1066786 0.23296669 -0.14379336 0.3209839 -0.104712 0.4091444 0.0805029 -0.181834 0.34447065 0.21498027 0.6641043 -0.48754197 0.11421437 -0.83488727 0.23877266 -0.8829711 -0.34773722 0.16798839 0.11809935 0.07802894 0.020158015 -0.059130386 -0.25185904 -0.6212848 0.11413367 0.26667807 0.5759626 0.25007534 -0.14542899 -0.32446033 -0.8058379 0.16333097
计算开销大 -0.41301358 0.43024305 -0.32760072 0.11577586 -0.023601409 0.27343893 0.0775099 0.020348774 -0.40801024 0.16454804 -0.619712 -0.0040285676 -0.1687906 0.7170782 -0.31350902 0.056207698 0.79486376 -0.017310644 -0.5048952 0.15874238 0.10235858 0.4009137 -0.19463518 -0.030612443 -0.3204916 -0.3972982 0.5992726 0.04552437 1.2558595 -0.09030396 -0.03235203 -0.9701602 0.53407943 -0.9493438 -0.24274886 0.21430844 0.2450952 0.054361627 -0.28878775 0.0439729 -0.03354672 -0.2931803 0.30969015 0.12188137 0.16960159 0.17450535 -0.49911234 -0.4375764 -0.7433789 0.77359796
缺点 -0.40530303 0.3270515 -0.30396047 0.102361225 -0.04467815 0.27796102 0.057626225 0.02925589 -0.4842569 0.20900817 -0.57537085 -0.045179877 -0.22252922 0.63959146 -0.35066932 0.023018654 0.72923046 -0.08635193 -0.437783 0.22182585 -0.027173737 0.37475896 -0.117090486 0.018621512 -0.35780582 -0.4035561 0.6726613 0.037852492 1.2266909 -0.05350795 -0.0032392556 -0.9347081 0.5763554 -0.9492142 -0.23891753 0.14966151 0.31786567 0.059585515 -0.32279322 0.009517211 -0.10270174 -0.3409053 0.331315 0.18257779 0.25114465 0.25401416 -0.4691082 -0.4095291 -0.71699274 0.712814
需要进行O(NMw)次比较 -0.39688116 0.42232716 -0.28767943 0.035603125 -0.064010166 0.2530773 0.059261657 0.008359862 -0.5210105 0.16372165 -0.5927081 -0.03717706 -0.14121982 0.61331296 -0.45262346 -0.037124332 0.81269574 -0.012301174 -0.47844195 0.20549922 0.053642735 0.37533537 -0.13597398 -0.019386875 -0.35541344 -0.36992925 0.664376 0.112232685 1.2556349 -0.054110054 -0.033503294 -1.0159236 0.5145388 -0.9493452 -0.18041444 0.19352823 0.32744354 0.13441956 -0.29886293 -0.010078992 -0.067462556 -0.35065937 0.38143477 0.22924493 0.150032 0.19313903 -0.5620513 -0.47856677 -0.6973937 0.74345523
项 0.246182 0.3376169 0.50877655 0.17452246 -0.54878515 0.20708191 0.19455746 0.5796823 0.15904629 -0.5230333 -0.44839495 0.06684564 0.1681657 0.120417416 0.23608637 -0.39275834 0.032365542 -0.041879952 0.04127007 -0.26488182 -0.051006783 0.022706972 -0.02292512 -0.27549008 0.20341377 0.20089966 -0.020785416 -0.016919527 0.6469995 -0.014582001 0.6841733 -0.12149625 -0.11379457 -0.17124128 -0.44026408 -0.28016144 0.07472825 0.02003475 -0.14567119 0.087692514 -0.50836146 -0.2548523 0.8445806 -0.039978266 0.32986373 0.3220067 -0.016215736 -0.4209906 -0.48535955 0.11701907
支持度计数 0.29282418 0.2709981 0.45659333 0.29402086 -0.6379135 0.47413057 0.38279167 0.53617394 0.2627136 -0.6152593 -0.4376613 0.10398219 -0.118819736 0.31984493 0.31924433 -0.18028903 0.0014636433 -0.21631418 0.08226809 -0.1389066 -0.24949162 -0.12989722 -0.13517198 -0.29520574 0.30328754 0.25423446 -0.19663475 0.015728941 0.8347706 -0.08437535 0.8690651 -0.19115408 0.07043681 -0.24531083 -0.67662 -0.4293965 0.07535079 -0.005648026 -0.19221173 0.028927628 -0.5253786 -0.25440648 0.7740787 -0.30489343 0.4668081 0.36126536 0.15488885 -0.46450192 -0.91037965 0.09335066
形如X→Y的蕴涵表达式，其中X和Y是不相交的两个项集 0.325784 0.22624089 0.47167084 0.18694714 -0.5228311 0.3052387 0.3160127 0.56443757 0.17201068 -0.49579552 -0.39982232 -0.010737414 -0.032442663 0.2403436 0.20680295 -0.17323598 0.12939014 -0.1602851 0.040640596 -0.1610519 -0.1877968 -0.033917382 -0.07518653 -0.27162963 0.14187902 0.24121423 -0.108488865 0.18103394 0.684678 -0.050109856 0.76259387 -0.15446346 -0.11150459 -0.18963999 -0.49410072 -0.44228473 0.03117826 -0.014809592 -0.25859025 0.011203361 -0.5000089 -0.31362262 0.726168 -0.040967155 0.39767623 0.53695196 0.1941497 -0.35371512 -0.8072519 0.063598305
关联规则 0.27877668 0.23783545 0.5796225 0.21923427 -0.61285377 0.29121393 0.30053073 0.49524474 0.19218974 -0.4684164 -0.39163104 0.011264905 -0.15901259 0.25398308 0.28287035 -0.22972119 0.052270256 -0.14712739 0.05243348 -0.18776731 -0.09578713 0.069793426 -0.14662546 -0.20187882 0.18407242 0.15880509 -0.08472546 0.16417935 0.65056825 -0.08903842 0.7361002 -0.19750999 -0.053640183 -0.11318292 -0.5008763 -0.38424045 0.11087301 -0.015121934 -0.33560714 -0.017382149 -0.42574126 -0.2779315 0.7549805 -0.02123676 0.40842068 0.44095132 0.19909485 -0.40943116 -0.8170935 0.023906842
对于项集来说，如果它的支持度满足最小支持度阈值，则称它为频繁项集 0.13425136 0.21687911 0.33316126 0.31259242 -0.5165093 0.3095077 0.24218558 0.43337265 0.038469758 -0.3961663 -0.42736962 0.041430026 -0.20554397 0.33475348 0.41679177 -0.002432311 0.02334988 -0.15069444 -0.026164385 -0.097012915 -0.24608488 0.053809926 -0.10398109 0.0065126126 0.26171136 0.098899804 0.05981391 0.013913612 0.67329746 -0.024147278 0.6425263 -0.2523772 0.055827983 -0.28066513 -0.5083404 -0.40333033 0.049828313 -0.0015868538 -0.2655443 0.1290605 -0.48767883 -0.26188403 0.61312217 -0.14755438 0.40296796 0.4430512 0.03722889 -0.3705191 -0.70138043 0.1427446
基于规则所处理的类型 -0.021255432 0.76997894 0.33458295 -0.26186433 -0.29239932 0.021137945 0.081961505 -0.22305062 0.010919154 0.041627288 -0.66068715 0.22577928 0.22629191 0.48104247 -0.58138645 -0.58228356 0.82645065 0.3638131 0.3887851 0.19023106 0.28845483 0.01931703 0.31916878 -0.36501586 -0.18002477 0.5100274 0.10336085 -0.23122478 0.5369096 -0.48037624 0.29172382 -0.16363533 -0.015570628 -0.25512597 -0.21020399 0.31972608 0.44169796 0.33720675 0.22849794 -0.24019162 -0.07989108 -0.61952275 0.30684015 -0.16199167 0.0063387644 0.12965168 0.25121453 -0.13106525 -0.0824517 0.5325303
时序模式关联规则 -0.18290995 0.30837727 0.15395503 -0.26760587 -0.5982977 0.10163346 0.114770934 0.35195008 0.3151822 -0.16435373 -0.36789134 0.9233014 -0.1609396 0.78350204 -0.53331923 -0.2928416 -0.1347466 0.7499475 -0.072362006 0.30831224 0.4523682 0.27170444 -0.13451304 0.10834122 -0.06302393 0.93459624 -0.23305331 -0.00031988806 0.5595115 -0.53678024 -0.052405063 -0.41839707 -0.32565224 -0.3552635 -0.32197878 0.049682908 0.5328645 0.77418816 -0.5288362 -0.24091205 -0.12894854 -0.7179008 0.40050033 0.4835589 -0.1308971 0.47136113 -0.29397807 -0.31723836 -0.01524516 0.08169073
时序模式关联规则就是包含序列模式信息的关联规则 -0.21436517 0.33986768 0.19729881 -0.26724872 -0.69794226 0.18031655 0.1396282 0.47455946 0.23040923 -0.18430355 -0.33049077 0.9755579 -0.090681165 0.84856516 -0.57470965 -0.2837279 -0.12797187 0.676768 -0.08866643 0.22987328 0.46927586 0.24995196 -0.17761378 0.14933278 0.014757819 0.9184779 -0.26605567 0.050547156 0.6058405 -0.63399255 -0.027771961 -0.3431614 -0.4050529 -0.44139066 -0.2572011 0.029290942 0.49245057 0.7666497 -0.5605737 -0.18767945 -0.15274757 -0.76453006 0.40691656 0.43204919 -0.2664503 0.51725227 -0.38414305 -0.35638958 -0.0035487227 0.06645727
序列特征 -0.16201195 0.28841427 0.21667716 -0.19940637 -0.6301187 0.13341396 0.12895833 0.4636857 0.29312536 -0.12806004 -0.28689706 0.9159489 -0.19304624 0.8246587 -0.51886106 -0.22826013 -0.13807786 0.73566306 -0.116349585 0.27047998 0.53556865 0.3284262 -0.10538065 0.11133501 0.01941121 0.9603195 -0.29579973 -0.01696893 0.66040945 -0.5691526 -0.0039161793 -0.3892639 -0.34547478 -0.44667757 -0.322378 0.11358963 0.54075533 0.76994395 -0.56482965 -0.19963507 -0.21774338 -0.746011 0.40853795 0.5002104 -0.20309292 0.45478392 -0.32127687 -0.28601068 -0.006978794 0.16430034
关联规则中存在基于时间或空间的先后次序 -0.24086076 0.3251743 0.1620491 -0.19717321 -0.63354117 0.14980659 0.098358355 0.4487708 0.27804923 -0.16195105 -0.27690098 0.8884216 -0.14198251 0.8432344 -0.5100165 -0.22608134 -0.13560705 0.65423125 -0.066657625 0.27665305 0.46140623 0.28411838 -0.13223028 0.13296492 -0.024014015 0.92365533 -0.19710958 0.03309074 0.6039535 -0.5511484 -0.038819704 -0.38818794 -0.33222538 -0.39569235 -0.32158405 0.0025387811 0.42791238 0.6874711 -0.5668403 -0.26036656 -0.1346182 -0.7533274 0.40054542 0.48788023 -0.17503813 0.43722194 -0.2934155 -0.29450357 -0.08741916 0.100230984
强规则 0.10495171 0.21992256 0.36316985 0.2038773 -0.42358398 0.23522905 0.1885429 0.31067115 0.04437181 -0.33848953 -0.33348063 0.07930428 -0.12602705 0.2694964 0.11456661 -0.16693838 0.10910189 -0.03654889 -0.0044667064 -0.030130276 0.0046026846 0.0859352 -0.085955 -0.17684661 0.03737551 0.12868154 -0.058848165 0.12394757 0.47114676 -0.07781819 0.46128353 -0.2461674 -0.054531675 -0.10128853 -0.31745824 -0.21458402 0.11603675 0.08061925 -0.20099981 -0.023568062 -0.37736857 -0.17891395 0.47559303 0.048624758 0.23370226 0.36195233 0.016600356 -0.2984799 -0.48477322 0.07659841
置信度 0.11220498 0.46527985 0.4552184 0.08189475 -0.3995175 0.3463218 -0.08281441 0.17310204 -0.17204425 -0.084411 -0.24504751 0.08859842 -0.24052855 0.35685056 0.073612735 -0.015116928 0.363028 -0.030352574 -0.018661717 0.0139041385 0.15608254 0.06925582 0.16150421 -0.18174753 -0.0034429783 -0.13772395 -0.32909137 0.09454338 0.45432165 -0.3297132 0.031224273 -0.46138206 -0.30199158 -0.11254325 -0.29854453 0.13082302 0.07618852 0.055069514 0.09143363 0.01707559 -0.14621739 -0.20883347 0.23132022 0.2419172 0.31969884 0.43322173 0.15106262 -0.35872722 -0.57239467 0.04018926
结构模式关联规则 -0.584311 0.7677428 0.00252175 -0.20501152 -0.6872024 0.19758254 -0.05185691 0.45469797 0.060282566 -0.39043865 -0.38292128 0.5756229 -0.32246158 0.45148957 -0.5578577 -0.49491906 -0.09391087 0.27449507 0.015529519 0.04812609 0.2352317 0.28327346 0.15824462 -0.44076833 -0.48267773 0.7375203 -0.4183082 0.030008087 0.502773 -0.89875126 0.10861728 -0.5102757 0.35147962 -0.29818398 -0.42930925 0.28868058 0.33827657 0.05179267 0.2213031 -0.70695055 0.019230558 -0.6864028 0.08651594 0.40879118 -0.018362263 0.53375983 0.014786453 -0.403815 0.047445294 0.53567356
结构模式关联规则就是挖掘结构模式得到的关联规则 -0.65322053 0.6808424 -0.07922828 -0.2011746 -0.6874699 0.27373818 -0.03808663 0.49242932 -0.06136593 -0.38157973 -0.32786658 0.6513366 -0.3504381 0.4060766 -0.6514608 -0.50838435 -0.18853635 0.15791327 -0.007578193 0.0627383 0.18969148 0.27131933 0.17037752 -0.4655302 -0.5555303 0.6487992 -0.53373533 -0.08065911 0.57632303 -0.9798666 0.059920937 -0.40756208 0.30102918 -0.27179602 -0.44486177 0.30246747 0.373296 0.0238065 0.17297244 -0.8061671 -0.039471377 -0.6533918 0.11722291 0.3349732 0.029633079 0.49660757 0.034976415 -0.46581462 -0.0010432482 0.62191796
结构模式 -0.6725892 0.798776 -0.04632902 -0.22209878 -0.7307131 0.19314975 -0.11852504 0.4686867 -0.009827152 -0.39436218 -0.36451036 0.56811655 -0.40569913 0.42285252 -0.5867115 -0.51111865 -0.20143324 0.17300451 0.0268601 0.018586224 0.2235693 0.25219372 0.15563092 -0.41052428 -0.55027354 0.6377611 -0.46395653 0.010444663 0.5180603 -0.9116861 0.1579048 -0.44131598 0.40755007 -0.311481 -0.47385746 0.25001076 0.27662298 0.0722741 0.20045899 -0.8052582 0.022841161 -0.7477104 0.09221299 0.42823797 0.09118993 0.5014889 0.073166095 -0.4013605 0.05826197 0.55431366
结构模式是指结构数据集中的频繁子结构 -0.64800715 0.70078546 -0.06145016 -0.12160704 -0.65310484 0.23885591 -0.034561124 0.45848137 -0.014233117 -0.35643798 -0.3144505 0.5353754 -0.30214313 0.43383405 -0.58152765 -0.4524078 -0.16969664 0.19431311 0.0460624 0.023669215 0.20629555 0.2899462 0.22027987 -0.408783 -0.5163352 0.7153846 -0.49653605 -0.0045089563 0.5698611 -0.9553618 0.07727779 -0.4906863 0.37982187 -0.30067053 -0.5310301 0.2609682 0.29334557 -0.0076155816 0.23453896 -0.73913825 -0.006696167 -0.7246239 0.09853743 0.3414638 0.014566497 0.5002397 0.089653075 -0.5026567 -0.033109378 0.65420616
最小支持度阈值 -0.12533782 0.16650434 0.06846948 0.17773357 -0.21291313 0.18759981 0.10181416 0.12425833 -0.21206181 0.08649237 -0.32127807 0.03771679 -0.33934376 0.51184 0.21366882 0.054397106 0.2524503 -0.13909474 -0.056511976 0.14089264 -0.043304507 0.13913761 -0.096532434 0.1676275 0.017448809 -0.025242282 0.24717225 0.113831 0.5641741 -0.18039547 0.25387162 -0.59606576 0.19694495 -0.44421086 -0.2743968 -0.03969919 0.05779687 0.0013136307 -0.1085616 0.04762276 -0.2704934 -0.3805013 0.2529316 0.08380913 0.40489715 0.29551765 -0.12951939 -0.22885484 -0.6194465 0.14907126
支持度 -0.28127444 0.07061872 0.0015884172 0.26271006 -0.16489188 0.2199715 0.0792463 -0.10082306 -0.47462103 0.3882295 -0.3891195 -0.055108443 -0.50210404 0.55367905 0.18477198 -0.00798929 0.33430412 -0.12233808 -0.0779173 0.32262233 0.041643765 0.2405623 -0.05089024 0.30009028 -0.06692472 -0.06499698 0.25133172 0.17056432 0.60594696 -0.3887952 0.15203176 -0.6168961 0.1398039 -0.6422316 -0.18602517 0.20255722 0.1341969 0.18413769 -0.13200015 -0.10976844 -0.22713625 -0.58646125 0.2548293 0.2251851 0.5032861 0.2699982 -0.07251666 -0.33483335 -0.5674977 0.21603662
|•| 0.21648118 0.20423317 0.39297676 0.37201664 -0.5924898 0.49978298 0.26848528 0.51925665 0.33066413 -0.66989005 -0.35728842 0.11038893 -0.15625033 0.35067245 0.26534185 -0.3075694 0.07344975 -0.19866088 0.046810996 -0.1584623 -0.14441381 -0.1403471 -0.14520268 -0.3325432 0.22305387 0.22250386 -0.222095 -0.026608633 0.79967874 -0.090966366 0.8248623 -0.07780903 0.10907326 -0.32336056 -0.59106576 -0.41527444 0.19486462 0.06518275 -0.19121781 0.08608897 -0.6289965 -0.15510911 0.73806 -0.39895344 0.5130428 0.31199682 0.17637408 -0.374913 -0.9501769 0.12300784
σ(X)=|{t_i|X⊑t_i,t_i∈T}| 0.20119843 0.18813585 0.40093723 0.28000906 -0.6117148 0.4640165 0.3331333 0.5652738 0.3282039 -0.5589855 -0.30200824 0.11763114 -0.20623267 0.3025596 0.267206 -0.25767633 0.060829196 -0.1541531 0.116114534 -0.17749989 -0.2383572 -0.16365218 -0.116534814 -0.2654882 0.24614654 0.17499149 -0.26298785 0.054063704 0.8674095 -0.064667694 0.82694393 -0.10819628 0.121924445 -0.3627047 -0.66451436 -0.43098682 0.17246275 0.038824018 -0.25220177 0.115174614 -0.542763 -0.23812914 0.7336625 -0.37696293 0.50582993 0.3908805 0.13991968 -0.3996605 -0.9285261 0.098668836
1.确定候选项集的支持度计数 -0.28954872 0.045736425 0.12703565 0.2997137 -0.24759659 0.4319385 0.18348078 -0.15553086 -0.62097454 0.4767594 -0.35869497 0.0071462537 -0.56960976 0.7924014 0.2693102 -0.1134165 0.48955846 -0.28113768 -0.024667637 0.29075253 -0.11751193 0.32879785 -0.144307 0.36114737 -0.047519095 -0.20426513 0.33496797 0.28607953 0.6298072 -0.48847696 0.19609708 -0.7257955 0.26461712 -0.8686495 -0.32433197 0.19867618 0.07204443 0.12264272 -0.07615529 -0.055608183 -0.1935292 -0.5999181 0.23519716 0.28099564 0.6371907 0.23250689 -0.1290736 -0.32677045 -0.7848121 0.19146751
若关联规则中的项或属性只涉及一个维，则称它为单维关联规则 -0.1786358 0.08903022 0.20439148 0.4057272 -0.61093473 0.63310623 -0.6049499 -0.09437637 -0.2253568 0.11272262 -0.790906 0.45260626 0.33648992 0.3118723 -0.4141623 -0.5072784 0.4126985 0.69575346 0.3042179 0.54981345 0.5679427 -0.08211356 0.4048917 -0.60654736 -0.14232841 0.4003168 -0.1522471 -0.00120969 0.30307722 -0.4362115 0.5418339 -0.87387747 -0.3998016 0.12594235 0.33265796 0.1338077 0.27926055 0.08717922 0.23484382 -0.32308203 -0.43660337 0.048761003 0.60138506 0.2978339 0.07305244 0.31527442 -0.58497196 -0.12060616 -0.757063 0.4256365
单维关联规则 -0.18105437 0.10747043 0.27763826 0.24787426 -0.68084043 0.51318985 -0.6486735 -0.13889298 -0.17364688 0.1477173 -0.79675126 0.4093809 0.33058453 0.36533737 -0.45512906 -0.5734854 0.5328126 0.6977905 0.2597576 0.46465376 0.5243105 -0.13682894 0.3847002 -0.67555624 -0.19766688 0.35059872 -0.09836171 -0.00496375 0.30720785 -0.4868037 0.49317154 -0.8356192 -0.3577082 0.01083494 0.31366095 0.025320206 0.3800674 0.09869593 0.3322983 -0.31941643 -0.51083595 0.061322078 0.5069107 0.23839149 0.07628214 0.3187379 -0.65743244 -0.17661534 -0.6289 0.46830195
表示集合中元素的个数 0.22636563 0.21498923 0.4452619 0.251777 -0.6144115 0.46493307 0.26077643 0.59073645 0.27341506 -0.6093394 -0.28969333 0.1268691 -0.209851 0.3053678 0.22970076 -0.25046423 0.01550994 -0.118909016 0.08798548 -0.14205328 -0.24785218 -0.16122307 -0.09211889 -0.26603115 0.2203109 0.17924416 -0.2392401 0.019531367 0.8718245 -0.12974511 0.7844696 -0.07260559 0.12615372 -0.37953022 -0.6318019 -0.44299427 0.09851113 0.037798125 -0.23270687 0.105972715 -0.53306484 -0.18147413 0.662055 -0.35464996 0.47012347 0.32684872 0.12774326 -0.41193342 -0.89709073 0.12270579
若关联规则中的项或属性涉及两个及以上的维，则称它为多维关联规则 -0.12766618 0.08583406 0.15100147 0.334912 -0.6839698 0.6111357 -0.5203896 -0.17137219 -0.19612753 0.2071412 -0.6829406 0.4332177 0.22707693 0.32637537 -0.31746134 -0.4338815 0.45090094 0.69357425 0.23217566 0.46508256 0.4165101 -0.16343558 0.39129564 -0.6304481 -0.17151403 0.32211602 -0.08620455 0.019475631 0.2672198 -0.38045898 0.51421344 -0.80359244 -0.44689608 0.11917461 0.2338216 0.08397259 0.3060199 0.120987974 0.25504154 -0.35329542 -0.38398165 0.057878826 0.5780388 0.30119115 0.18849498 0.41357356 -0.6451912 -0.13128936 -0.7205002 0.4951023
多维关联规则 -0.13535917 0.2112589 0.19686809 0.24774632 -0.66259605 0.5038704 -0.57780975 -0.065635584 -0.12659316 0.1387058 -0.7441183 0.38907105 0.17475954 0.3398101 -0.4534304 -0.47595495 0.5078143 0.65720445 0.2452479 0.46811134 0.42782074 -0.16087991 0.4147647 -0.60964406 -0.22035624 0.432645 -0.12447226 0.050870053 0.30031076 -0.3472217 0.5424792 -0.7988628 -0.370535 0.10055999 0.27576712 0.061664406 0.2632177 0.05726041 0.29669213 -0.25913244 -0.34261572 0.08254117 0.5349149 0.28876358 0.11655397 0.34555024 -0.5804088 -0.105821036 -0.6720955 0.49313954
k-项集 0.19415003 0.37774208 0.5203697 0.15913303 -0.52396274 0.22433865 0.229553 0.44587907 0.13206911 -0.40114614 -0.39052826 -0.034463424 0.09808077 0.180006 0.2812462 -0.19577426 0.08247901 -0.09717917 0.04001448 -0.20239507 -0.12723887 0.06604134 -0.15532127 -0.21288581 0.195742 0.14533253 -0.012271967 0.12415419 0.60351163 0.06414626 0.70242804 -0.3070742 -0.15465759 -0.21983886 -0.4196823 -0.3000312 0.120023616 -0.036511283 -0.2564784 0.059431147 -0.3456634 -0.20401628 0.8019246 -0.05590758 0.30596852 0.4459847 -0.008962793 -0.32125872 -0.57570654 0.08600043
关联分析 0.06401857 0.32465538 0.06713856 0.07062436 -0.44311628 0.16532384 -0.15130849 0.21041061 -0.015346796 -0.1744583 -0.33364877 0.021621952 -0.08813989 0.37221414 -0.19453049 -0.14268063 0.24769415 0.22252755 0.0673015 0.012477225 0.060040023 -0.07890332 -0.053290293 -0.23564279 -0.09739471 0.12290947 0.06588803 0.17532666 0.44747728 -0.27563277 0.2884554 -0.3835269 -0.12162353 -0.10382931 -0.2830416 0.010465546 0.18352969 0.0052340925 -0.026280485 -0.005692335 -0.17580457 -0.2875846 0.1628276 0.0070372885 0.18827598 0.3252428 -0.08245702 -0.027122507 -0.3993759 0.084337845
如果一个项集包含k个项，则称它为k-项集 0.1520134 0.32165152 0.512533 0.13816929 -0.49658853 0.2464132 0.25806803 0.48235238 0.06658123 -0.43578377 -0.44782913 0.010885307 0.06590331 0.1363261 0.26305237 -0.2864402 0.16644317 -0.1947175 0.04286156 -0.21595865 -0.018102564 0.009903699 -0.11804773 -0.17595217 0.17780134 0.104984336 -0.010469828 0.07669788 0.6085915 -0.042098165 0.6773308 -0.26563534 -0.16292799 -0.15436374 -0.46033487 -0.3368024 0.036824226 -0.013721188 -0.20520101 0.020591188 -0.41348106 -0.23500901 0.7506338 0.035664264 0.3641781 0.40657464 0.03122243 -0.42940482 -0.59242743 0.041966937
空集 0.23881231 0.3446124 0.4757312 0.21856649 -0.5078607 0.15255967 0.1937375 0.50112015 0.19992752 -0.46465343 -0.39754432 0.08848231 -0.07068144 0.24599461 0.27706102 -0.14814664 0.1335184 -0.19270176 0.07171732 -0.15411557 -0.13276656 0.11444185 -0.20229748 -0.12623997 0.17332658 0.18117848 0.11203835 0.049866576 0.64080906 0.0024596383 0.7755 -0.33971497 -0.09282446 -0.03107814 -0.36033976 -0.42179713 -0.011285404 -0.114179134 -0.33044082 0.06008721 -0.40618092 -0.32107487 0.8118654 0.063050024 0.3038911 0.48116738 -0.02232412 -0.38163826 -0.6170454 -0.04403385
不包含任何项的项集 0.15305406 0.25314677 0.5066097 0.27441487 -0.6348114 0.21074596 0.29172865 0.4233406 0.022639345 -0.44000345 -0.48874435 0.03044261 -0.11040127 0.18560478 0.31847465 -0.12665886 0.056359768 -0.03048035 0.06331059 -0.19249487 -0.15057611 0.14587313 -0.08401543 -0.15879864 0.21783288 0.22247839 -0.047470372 0.17666179 0.55029815 0.03690852 0.5994546 -0.24280705 -0.12679774 -0.0850086 -0.46901497 -0.37238204 0.12446416 0.029538015 -0.3210429 -0.019696334 -0.36916134 -0.24682872 0.64311075 -0.011885582 0.2799063 0.5495166 0.098853625 -0.41682816 -0.67736626 0.05375297
若关联规则中还考虑了量化的项或属性之间的关联，则它是量化关联规则 -0.115824886 0.62030333 0.2319512 -0.18048373 -0.27271608 0.06277664 0.076371714 -0.11110091 -0.15164474 -0.04693798 -0.49019626 0.26600206 0.041987725 0.41602513 -0.4468914 -0.5660898 0.66233236 0.33660024 0.2884894 0.16975869 0.3446762 -0.041609768 0.17446882 -0.2753331 -0.04496979 0.48112163 0.08202632 -0.17203103 0.54786867 -0.3190678 0.31598195 -0.14805914 -0.068789385 -0.19476941 -0.19575416 0.23534614 0.29897213 0.3157832 0.03366994 -0.1979165 -0.09036554 -0.4871198 0.31120002 -0.113757126 -0.025398392 0.096377335 0.17896374 -0.29415163 -0.23571476 0.39718953
量化关联规则 -0.063987255 0.68425363 0.1869507 -0.14721866 -0.35046884 0.04969657 0.08279325 -0.1923025 -0.01357399 0.035183087 -0.50835025 0.19995695 0.05780303 0.49440697 -0.5237828 -0.53311056 0.6572499 0.2945653 0.4074471 0.18333806 0.34746754 0.011829756 0.2475129 -0.42879733 -0.12169467 0.4501605 0.05240578 -0.12119358 0.45597157 -0.33267912 0.19502509 -0.12674955 -0.11940994 -0.17848988 -0.23936452 0.23012389 0.3988351 0.3348039 0.17042004 -0.18652406 -0.12902461 -0.5457387 0.28895473 -0.09365832 0.00019981165 0.20515332 0.19553271 -0.12473679 -0.23133594 0.42550674
布尔关联规则 -0.18100552 0.6953391 0.40424487 -0.044791527 -0.33313936 0.12374937 0.11012169 -0.2229044 -0.0434571 0.051911365 -0.561862 0.16486947 0.21528766 0.5236601 -0.5370333 -0.62138796 0.6867716 0.31992358 0.36917692 0.2957143 0.2322709 0.033923477 0.18472905 -0.27345133 -0.050755404 0.40432426 0.107563004 -0.11129864 0.43149084 -0.45806724 0.12876123 -0.15147825 -0.02583948 -0.23911689 -0.29962054 0.18468462 0.32583594 0.3382658 0.17682324 -0.28468993 -0.21478422 -0.48652136 0.40123728 -0.16122855 -0.08568041 0.052024312 0.2655349 -0.21442796 -0.07697796 0.42256144
若关联规则只考虑项是否出现，而不涉及具体的取值，则它是布尔关联规则 -0.06695208 0.696332 0.24340609 -0.20382789 -0.3052886 0.032923315 -0.01063823 -0.17423749 -0.06005859 -0.018735508 -0.60485244 0.101240195 0.045998845 0.5369197 -0.4323405 -0.5243099 0.5201241 0.16399568 0.32939342 0.06783676 0.15761374 0.045031957 0.29544246 -0.43678173 -0.21892022 0.3774608 0.056892768 -0.103893526 0.44904786 -0.33932507 0.26037297 -0.17441618 0.05334069 -0.22986744 -0.13388832 0.12780504 0.35837224 0.26583624 0.2346418 -0.23834276 -0.13375759 -0.5280097 0.38918933 -0.16016598 0.000114829934 0.121719494 0.044476964 -0.23881258 -0.10227808 0.52266705
3.计算该候选关联规则的置信度 -0.0100340955 0.40798187 0.41307068 -0.018249713 -0.35620934 0.31462058 -0.042218048 0.18688908 -0.1946652 -0.10219844 -0.1844206 0.115798 -0.3258665 0.30905262 -0.013714793 -0.04866341 0.36644417 -0.04388682 0.0484006 0.039671905 0.11130829 0.019532552 0.12111418 -0.15838301 0.012393821 -0.10955475 -0.3140287 0.10963359 0.42817318 -0.2742449 0.039903276 -0.3899445 -0.26150194 -0.18350847 -0.33746785 0.089706376 0.14404249 0.009737896 0.036645405 0.06787094 -0.10242294 -0.29414642 0.2705197 0.2359748 0.31552187 0.49056435 0.1701132 -0.3221181 -0.60641026 -0.047359593
在关联分析中，包含零个或多个项的集合称为项集 0.17338982 0.2788219 0.36968356 0.18110597 -0.44400144 0.21320406 0.18464391 0.3793902 0.08663401 -0.34828418 -0.30577046 0.059484966 -0.06877301 0.20014931 0.19169953 -0.19233736 0.10839963 -0.09770092 0.033691585 -0.11386367 -0.08716168 0.033731427 -0.06253643 -0.17970715 0.14340857 0.15992218 -0.056926437 0.08500185 0.50790155 -0.043462243 0.53102756 -0.27272427 -0.042120494 -0.14564383 -0.4041765 -0.26212895 0.093515344 -0.026179988 -0.19915387 0.026473824 -0.32159615 -0.21789974 0.5969446 -0.0068760226 0.29282874 0.34662127 0.05943672 -0.30592284 -0.5557052 0.054926027
1.将频繁项集Y划分成两个非空子集X和Y-X 0.04382332 0.08577129 0.4355902 0.025395343 -0.25034842 0.21762113 -0.04130223 0.25790906 -0.19250616 -0.11003246 -0.21912737 0.07010285 -0.28382686 0.21122666 -0.15822953 0.035061352 0.21555015 0.0067164567 0.076645285 0.05124926 -0.049687598 0.09947707 0.115445025 -0.1000833 -0.00057956786 0.08873908 -0.12260134 0.28200957 0.4403646 -0.4399549 0.17278697 -0.60726684 -0.2243662 -0.40491927 -0.25147226 0.12212756 -0.008526926 -0.02983399 0.016727457 -0.019085035 -0.103441596 -0.35428548 0.29062897 0.20746066 0.40756282 0.3367237 0.24463598 -0.13063236 -0.75344414 -0.080160275
X和Y-X必须是非空子集，因为∅→Y和Y→∅没有实际意义 0.10513305 0.15261501 0.33224696 0.03989199 -0.257717 0.12279517 0.072703615 0.23545507 -0.20738383 -0.0838939 -0.24529122 0.17284378 -0.45463166 0.13887097 -0.13015719 -0.1623326 0.40680927 -0.15530162 -0.006243622 0.21011946 -0.028349876 0.00013280271 0.047539514 0.031799242 0.087092906 0.09668701 -0.08101104 0.25442243 0.44102305 -0.3894706 0.031613402 -0.53731424 -0.17793998 -0.21103299 -0.36051625 -0.04208516 0.0031644397 -0.11949949 -0.027101764 -0.015841253 -0.28745338 -0.42970085 0.30520773 0.19793208 0.42822745 0.49585858 0.1841663 -0.2986298 -0.6420583 -0.02511656
关联 -0.029454509 0.31275788 0.11611519 0.08782208 -0.38893703 0.25930882 0.02374902 0.03185117 0.020627404 -0.087319724 -0.24775968 0.2441075 -0.027426643 0.38229096 -0.089917846 -0.26325148 0.16776061 0.09810185 -0.036205243 0.18808173 0.10189119 -0.0116957165 0.07104391 -0.011321382 -0.0055215177 0.16611797 0.046852343 0.0941409 0.46335882 -0.2600911 0.17535022 -0.33544758 -0.025831327 -0.105305426 -0.19985186 -0.023880973 0.117728755 0.19685327 0.06654287 -0.124958396 -0.17992054 -0.31935644 0.3363046 -0.014815066 0.15230088 0.27623048 -0.0817618 -0.13916151 -0.2417871 0.13480397
关联就是反映某个事物与其他事物之间相互依存关系 -0.1416818 0.27758977 0.23865671 0.036140673 -0.39436147 0.25265 -0.09938037 0.21337983 -0.11170348 -0.120047234 -0.20133789 0.17122063 -0.10846838 0.2461038 -0.014452887 -0.16579463 0.24413611 0.16621716 -0.02035338 0.019551102 0.10280067 0.14555848 -0.06089369 -0.186983 -0.07717694 0.16352107 -0.06340048 0.01831541 0.373566 -0.17369853 0.29185876 -0.3729711 -0.108575195 -0.26151696 -0.16782741 0.019644001 0.14338347 0.14634314 0.0008163281 -0.13711345 -0.26809347 -0.19758506 0.364576 0.069961704 0.09580336 0.18455347 -0.15331267 -0.1727657 -0.32052436 0.09555112
在数据库中包含该项集的事务个数 0.20647863 0.24538054 0.42255878 0.22659041 -0.51017743 0.2612829 0.19171064 0.48833433 0.15732466 -0.42598572 -0.28442317 0.018477969 -0.11309302 0.196473 0.24072571 -0.23616305 0.08409447 -0.08805982 0.026775794 -0.19920498 -0.107489794 0.009695335 -0.0919387 -0.20638114 0.12855312 0.16922891 -0.10815641 0.11023343 0.6455276 -0.047186572 0.6377359 -0.1765275 0.0026781538 -0.22872488 -0.4536168 -0.33744878 0.14149866 -0.004772486 -0.2737373 0.039879356 -0.45373562 -0.22422434 0.66283876 -0.09665673 0.37325087 0.3929233 0.09054349 -0.31958055 -0.643465 0.03343151
N是事务数 -0.3226208 0.3000747 -0.23591007 0.06285645 -0.095009066 0.27323306 0.07521024 0.013031247 -0.39659268 0.22440241 -0.47731426 0.014103745 -0.18659405 0.53708076 -0.32230332 -0.055443455 0.63160557 -0.018931217 -0.36532387 0.172727 0.059118982 0.29053617 -0.11461419 0.02635838 -0.28181973 -0.33068404 0.5414819 0.013063034 1.0317227 -0.07597641 -0.008305434 -0.79635435 0.47384053 -0.81061906 -0.20734756 0.17531015 0.2692074 0.109073885 -0.20263685 -0.0139135 -0.11668672 -0.35025063 0.2877775 0.17112254 0.18148667 0.1837404 -0.46022728 -0.31765518 -0.5618623 0.5830163
w是事务的最大宽度 -0.33040893 0.3079581 -0.2040472 0.075124346 -0.07230783 0.26594815 0.07082546 -0.0002037315 -0.35725105 0.19432132 -0.5200312 0.018610463 -0.18018205 0.5530462 -0.3071412 -0.061913855 0.6070569 0.013062223 -0.35567313 0.18122461 0.039430063 0.29186255 -0.10302756 0.006662111 -0.27146265 -0.29850963 0.4914031 0.0056540375 1.032944 -0.10087002 -0.005363684 -0.7951743 0.46505424 -0.7645847 -0.1747102 0.16880076 0.26513284 0.07258499 -0.18785079 -0.032540638 -0.09593595 -0.3228574 0.31494808 0.13888912 0.20319305 0.18107222 -0.4573194 -0.30400506 -0.54639995 0.5981197
1.将候选项集与每个事务进行比较 -0.3165969 0.04646677 0.090417184 0.26528752 -0.1678973 0.39739507 0.024546182 -0.02428252 -0.42197877 0.3596737 -0.34458944 0.033475325 -0.6067909 0.6196818 0.23435894 -0.047578353 0.32282344 -0.15799546 -0.12692596 0.19585738 -0.09282609 0.32339302 -0.14266352 0.35935804 0.022258554 -0.1421977 0.3023137 0.26359951 0.6795974 -0.30447224 0.14656289 -0.7181866 0.2249759 -0.7741265 -0.3093998 0.20095895 0.064732864 0.11895921 -0.037834693 -0.0138561055 -0.16624154 -0.5627456 0.120666556 0.1458076 0.51753527 0.25642082 -0.17626162 -0.23608837 -0.6853656 0.27966174
对于每行事务，其中包含的每个商品都称为项 0.04563416 0.31722778 0.3226268 0.14789991 -0.43020543 0.17625073 0.13232814 0.32937014 0.037209116 -0.28294066 -0.31437138 0.067188546 0.06751276 0.14503676 0.0541648 -0.34626728 0.14418852 -0.04413714 0.07950925 -0.110209785 0.053829137 0.01986107 -0.05256163 -0.20549668 0.13119239 0.12390975 0.004270416 -0.0012129905 0.45480752 -0.050378963 0.4813505 -0.31000593 -0.077958934 -0.16068184 -0.34037802 -0.115304336 0.09992232 0.04530168 -0.06695551 0.0026487703 -0.31102198 -0.20915681 0.61054546 -0.03354879 0.19940268 0.24306697 -0.083130516 -0.3328836 -0.36199212 0.054186296
最小置信度阈值 -0.04490253 0.2700712 0.26689577 0.05869558 -0.39003652 0.19140069 0.011933473 0.20229928 -0.1077666 -0.121459976 -0.29653788 0.1168122 -0.12894982 0.32164046 -0.024811674 -0.17434436 0.27193466 0.06586636 0.0663304 0.099221714 0.07742951 0.05859147 0.051270477 -0.099610455 -0.058121145 0.03605515 -0.094265245 0.08725563 0.4944589 -0.186722 0.2166096 -0.33844912 -0.09348981 -0.2041209 -0.2562591 -0.038153592 0.17375977 0.041079205 -0.074926026 -0.01992581 -0.18357822 -0.2992494 0.33769462 0.16312125 0.27254 0.3725826 0.060072284 -0.27499002 -0.48770618 0.10666727
频繁k项集的集合通常记为L_k -0.0122428 0.19804516 0.17644392 0.12885122 -0.32990944 0.17875119 0.071666226 0.17067102 -0.10223261 -0.11137655 -0.29481983 0.08894702 -0.14697957 0.32038838 0.09689186 -0.053132206 0.16854253 -0.0058432743 0.011663538 0.05337322 -0.01330824 0.11529521 -0.022978172 -0.004939213 0.024849325 0.08439336 0.046155944 0.04222351 0.4708647 -0.13884339 0.2957112 -0.3722111 0.033594284 -0.23108807 -0.23778753 -0.099015094 0.12767473 0.05167931 -0.15098487 -0.033229053 -0.2529036 -0.29381642 0.3091954 0.04544251 0.22751349 0.3126577 -0.0732927 -0.25122005 -0.4617418 0.16395679
c(X→Y)=(σ(X∪Y))/(σ(X)) -0.031875864 0.36504996 0.3408099 -0.009500035 -0.41993102 0.2244084 -0.048909087 0.18601461 -0.14623615 -0.14518036 -0.2087721 0.1419997 -0.21746469 0.31765634 -0.055179566 -0.1474469 0.32359502 0.06904377 0.092721015 0.1440607 0.10874283 -0.025799207 0.14882234 -0.084207125 -0.072419666 -0.08457921 -0.21505685 0.09560332 0.49870676 -0.22716597 0.07873874 -0.40528214 -0.13011356 -0.24199243 -0.27585322 0.028667849 0.15378492 0.018469946 0.022444861 0.03196111 -0.13307184 -0.32283607 0.31485268 0.1975473 0.361292 0.46612838 0.19029815 -0.32420206 -0.5338148 0.008213709
M=2^k-1是候选项集数（不含空集） -0.31952235 0.31331915 -0.19128568 0.073301755 -0.080290265 0.24523783 0.042169675 0.009048654 -0.35228 0.18867767 -0.49608755 -0.003066773 -0.1718595 0.5653569 -0.30100456 -0.021223122 0.6025224 -0.011528837 -0.34297174 0.14542037 0.064325094 0.26245937 -0.10343121 0.011306676 -0.27759954 -0.28988412 0.50947154 0.02917121 0.99051267 -0.099117026 0.0015505126 -0.7658483 0.45623004 -0.75946575 -0.1920257 0.15617286 0.21678604 0.085147485 -0.17558305 -0.036251627 -0.07945857 -0.31812426 0.2761014 0.15317823 0.17813891 0.20317172 -0.4252619 -0.31636298 -0.5359931 0.5806582
用于给定数据集的频繁程度 -0.18651354 0.15276657 0.010356604 0.12634392 -0.20488447 0.21897034 -0.014066649 0.01582001 -0.29071176 0.27276757 -0.28132665 0.07773133 -0.40647975 0.62625986 0.12410645 -0.020376688 0.31893784 -0.08496423 -0.08440551 0.26857486 -0.024059165 0.2192494 -0.028688354 0.17803586 -0.09870839 -0.062273778 0.20132825 0.13643382 0.5078749 -0.2763746 0.14058386 -0.5493122 0.15947227 -0.48883775 -0.24042512 0.14954026 0.08628379 0.046786714 -0.027774466 -0.0313891 -0.15976876 -0.44397599 0.1656662 0.21142446 0.36483014 0.24548161 -0.13464424 -0.21131991 -0.54201365 0.16567072
2.与最小支持度阈值比较 -0.25908643 0.17943375 -0.0045792176 0.2069014 -0.12931009 0.25596908 0.06359769 0.033883307 -0.31711733 0.14600869 -0.3396114 0.0113751525 -0.3298974 0.48067448 0.090013914 0.010362149 0.2844983 -0.14221986 -0.1385871 0.18420061 -0.039972458 0.18352193 -0.07105402 0.19540146 0.01411143 -0.13022263 0.24812657 0.06741232 0.62924844 -0.2145522 0.10254841 -0.5921586 0.19746502 -0.5651908 -0.25823766 0.014402019 0.1112042 0.07653804 -0.12519331 0.03330427 -0.25275007 -0.36796892 0.2029751 0.15390915 0.27749786 0.28920093 -0.13614875 -0.30577773 -0.4782481 0.27420124
关联分析是指在数据中，找出存在于项目集合之间的关联模式 -0.18439294 0.23924403 0.2307012 0.19678757 -0.37328058 0.10025885 -0.019206678 0.1180496 -0.070715286 0.020204829 -0.17053857 0.105577715 -0.15625086 0.4112716 -0.20369093 -0.10356106 0.096219465 0.13317835 0.15106142 0.010529223 0.114622355 0.08732239 0.015422849 -0.14761709 -0.033631507 0.17505951 -0.030537868 0.05290255 0.49510363 -0.22819655 0.24560618 -0.41124028 -0.059585903 -0.20383835 -0.22570334 -0.09394796 0.07058514 0.037914902 0.024005465 0.013854385 -0.1838084 -0.2475948 0.43456507 0.11962032 0.16370536 0.18155834 -0.056796234 -0.18288545 -0.39787167 0.17687935
用于确定后者在包含前者的事务中出现的频繁程度 -0.090401255 0.34268117 0.28675422 -0.0056155324 -0.4141883 0.24830171 -0.013854483 0.17977437 -0.12482938 -0.12374663 -0.22397667 0.16657822 -0.20895712 0.326934 -0.05711259 -0.13483562 0.2863608 0.08968174 0.076754935 0.11330805 0.11456701 -0.015817132 0.09940067 -0.096222706 -0.079398625 -0.016227115 -0.18162273 0.06272366 0.49164993 -0.2419011 0.10022229 -0.35479912 -0.09317492 -0.25432876 -0.2639109 -0.0030444341 0.16819803 0.039486144 0.00863513 0.03704025 -0.13045168 -0.34565765 0.32424235 0.20103915 0.27432838 0.44522044 0.10262922 -0.29028654 -0.48094913 0.06561284
2.如果候选项集包含在事务中，就增加它的支持度计数 -0.3089297 0.05878087 0.054962337 0.2658591 -0.13869128 0.3819247 0.04537507 -0.051544007 -0.4215749 0.35105702 -0.36018923 0.019024957 -0.5803366 0.654983 0.20458066 -0.04046087 0.34084144 -0.14248535 -0.1409951 0.23444118 -0.05889046 0.32777315 -0.12477692 0.360337 0.015636396 -0.1402475 0.29964313 0.2421764 0.7034674 -0.3154075 0.12537025 -0.686385 0.24956319 -0.7866336 -0.26747993 0.17595907 0.06275372 0.11363257 -0.04715566 0.003057479 -0.15750054 -0.5487127 0.12574069 0.16967684 0.502068 0.23197679 -0.1808263 -0.2439838 -0.6652446 0.29376128
数据通常以二维表的形式展示，每一行都对应一个事务 0.009863215 0.25704083 0.22267173 0.10470425 -0.335176 0.16611606 0.04482835 0.22996517 -0.030298674 -0.16690287 -0.30787224 0.13462283 -0.02076967 0.19630551 -0.03223768 -0.2511719 0.15730217 0.07162463 0.047571935 0.015585806 0.03936152 0.027481686 -0.008032452 -0.13085388 0.0074089044 0.11749494 0.004274546 0.04169274 0.44277522 -0.15943916 0.28825796 -0.28241318 -0.04976889 -0.15344661 -0.2353296 -0.07816778 0.13348143 0.055875644 -0.06327348 -0.028810758 -0.25301775 -0.23787567 0.43223432 0.03558778 0.18068616 0.2221374 -0.060175635 -0.252982 -0.35932574 0.14315362
3.满足的即为频繁项集 -0.18066883 0.16450346 0.017683119 0.115749076 -0.17310691 0.18579186 0.046243407 0.03292948 -0.22650988 0.0938931 -0.30476302 0.03252199 -0.23657274 0.41555873 -0.045690075 -0.06398137 0.30589807 -0.04869073 -0.124916434 0.13572986 -0.005779972 0.1507613 -0.02612903 0.07501068 -0.0830728 -0.061492316 0.2016446 0.106312506 0.5489267 -0.21026887 0.082734466 -0.48929137 0.14451748 -0.43324634 -0.18405473 0.06264546 0.10489165 0.06958018 -0.09084973 -0.012221732 -0.14661296 -0.30597955 0.18703751 0.122289956 0.25487915 0.19340234 -0.129838 -0.23007894 -0.44208598 0.23092277
s(X→Y)=(σ(X∪Y))/N -0.23453459 0.17821686 -0.0041355942 0.12098955 -0.19043875 0.22672608 -0.013659383 0.020249076 -0.3220631 0.27266636 -0.27730107 0.08910137 -0.43070745 0.6632235 0.17567614 -0.04111211 0.32463512 -0.11493477 -0.065647624 0.2868119 -0.01194623 0.21902978 -0.04791289 0.18084985 -0.104869075 -0.06205346 0.22169231 0.15052287 0.5494051 -0.2759978 0.11784017 -0.5680854 0.21489358 -0.53343815 -0.23367506 0.13567598 0.06301824 0.047221366 -0.03262372 -0.04677868 -0.17311884 -0.47642273 0.19541113 0.21424575 0.39948452 0.2359124 -0.16133727 -0.2201097 -0.5646972 0.17580001
4.满足最小置信度阈值，则该关联规则就是强规则，否则舍弃 -0.03516954 0.1900944 0.23581639 0.077032246 -0.28023452 0.21743205 0.03154793 0.18485919 -0.12813513 -0.046725884 -0.24989323 0.12121735 -0.20134522 0.2946768 -0.05431546 -0.12361562 0.20855682 -0.038327474 -0.015760181 0.072166316 0.03346865 0.06268759 0.03736071 -0.07450068 0.019814823 0.06290013 -0.026742183 0.09559452 0.42230618 -0.25842175 0.18765989 -0.41198477 -0.048037436 -0.2918909 -0.27004805 0.01663977 0.12435744 0.00059984886 -0.044824954 -0.07188251 -0.15704566 -0.26932737 0.30249405 0.123133905 0.27308148 0.31957415 0.016953921 -0.2343495 -0.49981186 0.09583938
如果两个或多个事物之间存在一定的关联性，则其中一个事物就能通过其他事物进行预测 -0.16430245 0.2696037 0.22477104 0.18367192 -0.4050549 0.10113678 -0.035001326 0.14038295 -0.0665168 0.007695669 -0.18056989 0.09942128 -0.16206935 0.42046592 -0.21174067 -0.12702185 0.11958582 0.14783055 0.15348205 0.036153283 0.12869786 0.08552144 0.054375675 -0.15138628 -0.013631498 0.17261827 -0.019849148 0.031142946 0.49813524 -0.22750445 0.26186004 -0.39119673 -0.060737047 -0.19738072 -0.21203896 -0.08875313 0.06993766 0.047069397 0.017786331 0.0052515315 -0.16372822 -0.24666202 0.43117857 0.10247267 0.15476002 0.19815893 -0.073490575 -0.17265306 -0.4111558 0.1566938
对于关联规则来说，如果它同时满足最小支持度阈值和最小置信度阈值，则称它为强规则 0.0011564181 0.22973375 0.21380855 0.06627535 -0.367382 0.17107944 0.03636216 0.21858957 -0.02412493 -0.13264135 -0.30172262 0.10232192 -0.06455607 0.28064153 -0.025589567 -0.17778756 0.20606181 0.030869734 0.025661934 0.07280997 0.027532931 0.099907696 -0.03402439 -0.15418871 -0.038126595 0.14680037 -0.010898863 0.056779034 0.45172673 -0.15422848 0.30406812 -0.30236503 -0.054323036 -0.16486742 -0.21388529 -0.12614478 0.15734798 0.09128479 -0.1365723 -0.06868846 -0.23867486 -0.30729964 0.37349662 0.10334216 0.18985276 0.2894114 -0.041307863 -0.23017213 -0.45431128 0.17003006
每个频繁k-项集能够产生2^k-2个候选关联规则 -0.023679165 0.18310848 0.23974167 0.047233656 -0.26458675 0.21151054 0.03159032 0.17680433 -0.14245506 -0.03604021 -0.26453862 0.121458076 -0.19476171 0.31312016 -0.057172388 -0.11574195 0.20140354 -0.052875012 0.0051600784 0.05200382 -0.0021530015 0.09945994 0.02004878 -0.08169215 0.016793214 0.05876491 -0.039162654 0.110121556 0.43081948 -0.27422532 0.19003122 -0.39159015 -0.053665288 -0.28597555 -0.2770198 -0.011813518 0.11671824 -0.0030009751 -0.04453577 -0.045348085 -0.17106114 -0.28855887 0.308412 0.13229878 0.27855498 0.30618602 0.024499828 -0.23238683 -0.5073248 0.09585955
2.得到候选关联规则X→Y-X -0.044128526 0.1989741 0.22268163 0.04443698 -0.2660733 0.1945261 0.012806444 0.19012693 -0.12579896 -0.04638397 -0.24845736 0.12702857 -0.21145923 0.30162105 -0.07010466 -0.12405532 0.22548836 -0.050186846 -0.018902814 0.07528614 0.006440543 0.087864734 0.024097864 -0.07839832 0.011062364 0.056340918 -0.0036009077 0.10289675 0.4262227 -0.26002628 0.18460229 -0.42038542 -0.055060443 -0.28237337 -0.24920836 0.0007685046 0.107562825 -0.0055816155 -0.041147877 -0.06549598 -0.17764074 -0.2981362 0.29498696 0.10773849 0.24650177 0.31807497 0.009267669 -0.24857253 -0.4640313 0.09335442
当两个或多个数据项的取值相互间高概率的重复出现时，那么就会认为它们之间存在一定的关联 -0.05866741 0.12366106 0.094938196 0.04114721 -0.18637154 0.10805983 -0.0064532207 0.08720238 -0.025743382 -0.041883823 -0.19480017 0.09779954 -0.060395222 0.17042446 -0.05919968 -0.123760425 0.1350812 0.07318587 0.026597492 0.07200961 0.07526707 0.054952852 0.029622482 -0.07164681 -0.037673067 0.114896126 0.008686923 0.021354321 0.2535941 -0.14246589 0.116342105 -0.19469272 0.0079195425 -0.12899071 -0.10093757 -0.003779572 0.11139276 0.041789215 -0.039314352 -0.066601805 -0.124368794 -0.16081983 0.18996838 0.06410259 0.095319 0.14526638 -0.06926949 -0.13556626 -0.17846474 0.13110888
