230 300
关联 0.03835500031709671 0.15570500493049622 -0.1585489958524704 0.5331060290336609 -0.32852500677108765 0.0499269999563694 0.46645399928092957 -0.26024600863456726 0.4353489875793457 0.21026800572872162 -0.20961999893188477 0.05565299838781357 0.14905300736427307 0.4427280128002167 -0.31604599952697754 -0.2880280017852783 0.4129739999771118 0.4429750144481659 0.09203600138425827 0.2635209858417511 -0.17087200284004211 -0.4267530143260956 -0.2190299928188324 -0.1929139941930771 -0.40246298909187317 0.11890099942684174 0.0840350016951561 0.07978399842977524 -0.12764300405979156 0.2833159863948822 0.31518998742103577 0.3926509916782379 0.049244001507759094 0.03513399884104729 -0.00941499974578619 0.017534999176859856 0.09918099641799927 0.35385799407958984 -0.12757499516010284 -0.10168900340795517 -0.43598198890686035 -0.04728800058364868 0.07936800271272659 -0.10422100126743317 0.2549059987068176 0.05252499878406525 -0.015072000212967396 -0.8117979764938354 -0.047189999371767044 -0.3563069999217987 0.6194620132446289 0.41452598571777344 -0.0022770001087337732 -0.37909701466560364 -0.1098100021481514 0.05038800090551376 -0.1900160014629364 -0.5344939827919006 -0.36902499198913574 -0.06810300052165985 0.28785398602485657 -0.2241699993610382 0.07160300016403198 0.3711540102958679 0.11088600009679794 0.006680000107735395 -0.0673379972577095 -0.37701499462127686 0.27375900745391846 0.3731209933757782 -0.3178580105304718 -0.00608400022611022 0.037216998636722565 -0.07705499976873398 -0.08686400204896927 -0.5795159935951233 0.37089401483535767 0.393779993057251 -0.01430600043386221 -0.2819400131702423 -0.26540300250053406 -0.04102899879217148 0.016134999692440033 -0.11206299811601639 -0.521327018737793 -0.2544519901275635 0.06221500039100647 0.22878800332546234 -0.0602790005505085 0.06643199920654297 0.09368299692869186 0.11300600320100784 0.26048898696899414 -0.5406069755554199 -0.09182599931955338 -0.2011449933052063 -0.4404599964618683 -0.05943499878048897 0.33789700269699097 0.16645599901676178 0.555279016494751 -0.12942999601364136 -0.027636999264359474 0.06515999883413315 -0.03527599945664406 -0.16058200597763062 -0.22953200340270996 -0.5752249956130981 -0.34119701385498047 0.40514200925827026 -0.09282899647951126 0.19181600213050842 -0.052149999886751175 -0.06902000308036804 -0.09021700173616409 -0.20497700572013855 -0.1897840052843094 -0.25501498579978943 0.09897100180387497 -0.053784001618623734 -0.0998539999127388 -0.06720799952745438 0.1383180022239685 0.02395400032401085 -0.18079499900341034 0.09039600193500519 -0.11039300262928009 0.4101809859275818 0.04326999932527542 0.10835400223731995 -0.2716050148010254 0.005464000161737204 0.07109499722719193 -0.06083099916577339 0.17063100636005402 0.2826080024242401 -0.23377099633216858 -0.1192609965801239 -0.12778300046920776 0.22400400042533875 0.022597000002861023 0.10489200055599213 0.054173000156879425 0.060869000852108 -0.31418299674987793 0.3202100098133087 0.084477998316288 0.22557300329208374 -0.12540900707244873 0.10784099996089935 0.1169160008430481 0.3695890009403229 0.4118790030479431 -0.1328119933605194 -0.2710990011692047 -0.4075759947299957 -0.04489300027489662 -0.0826679989695549 -0.09573200345039368 0.3354940116405487 0.4704430103302002 0.02610599994659424 -0.19779899716377258 -0.3090820014476776 -0.32646098732948303 0.046546000987291336 0.1746390014886856 0.16585899889469147 -0.003350999904796481 -0.02367500029504299 0.24461700022220612 -0.3289310038089752 -0.19199000298976898 0.2854810059070587 -0.022398000583052635 -0.05202699825167656 -0.18971499800682068 -0.019224999472498894 -0.01710899919271469 0.013612000271677971 -0.43343600630760193 -0.3497059941291809 -0.16289900243282318 -0.1800920069217682 0.05178900063037872 -0.10980899631977081 0.2570280134677887 -0.04879499971866608 -0.09099899977445602 0.017295999452471733 -0.015037000179290771 0.007654999848455191 -0.33153700828552246 0.08414000272750854 -0.3584589958190918 -0.23867100477218628 0.21097299456596375 -0.3682889938354492 -0.16175000369548798 -0.030358999967575073 0.22119100391864777 0.27143600583076477 -0.19124199450016022 0.3450689911842346 0.21841199696063995 0.19599400460720062 0.08276300132274628 0.11924000084400177 0.38332900404930115 0.07503499835729599 -0.055006999522447586 0.25644201040267944 -0.15351399779319763 0.0726500004529953 0.42546701431274414 0.027163999155163765 0.01752999983727932 -0.27887800335884094 -0.08878699690103531 -0.25433099269866943 -0.11870899796485901 -0.21151000261306763 0.08903100341558456 0.2274329960346222 0.14062699675559998 0.17136399447917938 -0.09328000247478485 -0.08688099682331085 0.710548996925354 -0.03409000113606453 -0.04523700103163719 0.44153401255607605 -0.3226250112056732 -0.22321900725364685 -0.15108799934387207 0.12645100057125092 0.7732340097427368 -0.116627998650074 -0.26170799136161804 -0.10357899963855743 -0.1820710003376007 0.3734920024871826 -0.4612810015678406 0.3732469975948334 -0.22839300334453583 0.22070999443531036 -0.009057999588549137 0.42965400218963623 -0.4507899880409241 -0.39712101221084595 0.19211499392986298 -0.044103000313043594 -0.29603201150894165 0.1960970014333725 0.02431900054216385 -0.20025800168514252 -0.09511300176382065 -0.344633013010025 0.03901199996471405 -0.27414199709892273 -0.0859680026769638 -0.33862900733947754 0.1403619945049286 0.14680400490760803 0.16591200232505798 -0.3729569911956787 -0.09126400202512741 0.24254900217056274 -0.12018299847841263 0.17719599604606628 0.32204899191856384 0.6340590119361877 -0.21605800092220306 -0.08155900239944458 -0.358909010887146 0.29604101181030273 0.25591298937797546 -0.5118669867515564 0.4153690040111542 -0.04586400091648102 0.23283299803733826 0.0913740023970604 -0.19936400651931763 -0.17145000398159027 0.19536100327968597 -0.05824999883770943 0.04023899883031845 0.005404000170528889 -0.43837499618530273 -0.3694390058517456 0.16836699843406677 0.15035100281238556 -0.05591500177979469 0.01657399907708168 -0.21848000586032867 0.20722900331020355 0.3147999942302704 0.3829460144042969 0.46310698986053467 -0.026210999116301537
规则 -0.2330559939146042 -0.00871300045400858 0.1165580004453659 0.22513699531555176 -0.3879869878292084 -0.10950300097465515 -0.24156099557876587 -0.12637700140476227 -0.07239200174808502 -0.04600999876856804 -0.34609800577163696 0.27326700091362 0.3937250077724457 0.20931699872016907 -0.194349005818367 -0.1406880021095276 -0.2786850035190582 0.0068870000541210175 -0.3347119987010956 0.02879600040614605 -0.1418129950761795 -0.3576759994029999 -0.1705009937286377 0.07128199934959412 -0.12382300198078156 -0.14983800053596497 0.3428589999675751 0.3321399986743927 -0.28464600443840027 -0.3103320002555847 0.07909899950027466 0.04425499960780144 0.17304100096225739 -0.0955289974808693 0.3151170015335083 0.14265500009059906 0.06734199821949005 -0.20224599540233612 0.1357550024986267 0.03643599897623062 -0.04700300097465515 -0.06218300014734268 -0.13696299493312836 -0.07801199704408646 0.04229599982500076 -0.08757200092077255 -0.44356200098991394 -0.0860309973359108 0.2500990033149719 -0.26345300674438477 0.6325160264968872 0.2931619882583618 -0.16776199638843536 -0.27416300773620605 -0.6067569851875305 0.24371999502182007 0.29734599590301514 -0.0563649982213974 -0.37029099464416504 -0.00317199993878603 0.39319801330566406 -0.06324499845504761 -0.11091800034046173 -0.1441500037908554 -0.23312200605869293 -0.3644700050354004 0.013762000016868114 -0.3996889889240265 0.28968900442123413 -0.046181999146938324 -0.24161800742149353 0.0665619969367981 -0.005080999806523323 0.09317799657583237 -0.0169489998370409 -0.21682700514793396 0.2549839913845062 0.6704729795455933 0.3705880045890808 -0.0043669999577105045 -0.16707399487495422 0.013922999612987041 -0.3577190041542053 0.331508994102478 -0.17388300597667694 -0.13797500729560852 -0.06683699786663055 -0.018797000870108604 0.0001610000035725534 -0.2554140090942383 0.25440698862075806 0.3467789888381958 -0.19315099716186523 -0.240789994597435 -0.40059900283813477 0.13190299272537231 -0.6693689823150635 -0.29149800539016724 0.6630610227584839 -0.2586610019207001 0.5682759881019592 0.38440200686454773 -0.5685979723930359 -0.2965810000896454 -0.005222000181674957 0.011680999770760536 -0.23539699614048004 0.03857700154185295 -0.2811200022697449 0.2641969919204712 0.019063999876379967 0.026706000789999962 -0.22933299839496613 -0.20144300162792206 0.07254199683666229 -0.21378600597381592 -0.2492610067129135 -0.1059809997677803 0.27948901057243347 -0.0812930017709732 0.1428470015525818 0.09404300153255463 0.06219400092959404 -0.22574099898338318 0.26731500029563904 0.5194090008735657 -0.021841999143362045 0.030806999653577805 0.5295090079307556 0.3282569944858551 -0.0817829966545105 -0.26078900694847107 -0.012947999872267246 -0.10484600067138672 -0.09900999814271927 0.25988200306892395 -0.13474099338054657 0.24487699568271637 -0.39244499802589417 0.27276700735092163 -0.13342100381851196 0.16079400479793549 -0.0023060000967234373 -0.15691299736499786 -0.3346349895000458 0.20933100581169128 0.43055999279022217 0.3690190017223358 0.014835000038146973 0.1828179955482483 0.1549990028142929 0.4698120057582855 0.3447979986667633 0.10375600308179855 -0.3213070034980774 -0.2784850001335144 -0.04031600058078766 -0.07954400032758713 0.2001579999923706 -0.01816200092434883 0.18539400398731232 -0.4065150022506714 0.19468200206756592 -0.1907140016555786 -0.3080959916114807 0.01172299962490797 0.10715200006961823 0.0726109966635704 -0.017638999968767166 -0.03302200138568878 0.5071650147438049 -0.3404479920864105 0.09810999780893326 -0.008372999727725983 0.11228500306606293 -0.4713740050792694 0.5419999957084656 -0.07462800294160843 -0.0714149996638298 -0.14656199514865875 -0.040647998452186584 -0.5613870024681091 0.1043270006775856 -0.5110499858856201 0.310029000043869 -0.07668299973011017 -0.06101800128817558 0.32127800583839417 0.18653100728988647 0.7525920271873474 0.14245900511741638 -0.10823000222444534 0.27025800943374634 -0.02065500058233738 -0.3025220036506653 -0.3489679992198944 0.2943829894065857 -0.4259839951992035 -0.21888700127601624 0.050592001527547836 -0.001322000054642558 0.12200599908828735 0.48450401425361633 -0.01738799922168255 0.1853789985179901 -0.12702399492263794 -0.5428400039672852 -0.1977739930152893 0.0016570000443607569 -0.19785700738430023 0.5575979948043823 0.30555200576782227 0.029241999611258507 -0.0513870008289814 0.5609769821166992 -0.11902700364589691 -0.007720000110566616 0.12939199805259705 -0.11897300183773041 -0.26436200737953186 -0.1566080003976822 -0.312950998544693 -0.19494999945163727 0.14826099574565887 -0.10602399706840515 0.21268300712108612 -0.08548600226640701 -0.24799099564552307 -0.3177129924297333 -0.08063899725675583 0.141075000166893 0.3729360103607178 -0.5173879861831665 -0.06469999998807907 0.18994499742984772 -0.09838999807834625 0.2340559959411621 -0.07301600277423859 -0.19964399933815002 -0.40875399112701416 0.6421899795532227 0.1099649965763092 -0.17096500098705292 -0.3179750144481659 0.17732100188732147 0.039921000599861145 0.03385299816727638 0.3586690127849579 -0.1847810000181198 -0.5094349980354309 0.3834879994392395 -0.26782700419425964 -0.36639198660850525 -0.35437899827957153 -0.028067000210285187 0.4160900115966797 0.06667599827051163 -0.6397539973258972 -0.08132100105285645 -0.056373998522758484 0.4045180082321167 -0.15004800260066986 -0.17925399541854858 0.1756419986486435 0.3029719889163971 -0.2486090064048767 -0.03318899869918823 0.052274998277425766 -0.1540749967098236 0.44819000363349915 -0.1357250064611435 0.24133700132369995 0.3779579997062683 0.010588999837636948 -0.17813700437545776 0.2280309945344925 0.07210899889469147 -0.4627310037612915 0.4726009964942932 0.25304099917411804 -0.1166749969124794 -0.040022000670433044 0.13122400641441345 -0.09324400126934052 0.39581501483917236 0.14706599712371826 0.1433980017900467 -0.18602900207042694 -0.5094950199127197 -0.026285000145435333 -0.09530200064182281 0.38033899664878845 0.3119710087776184 0.13500399887561798 0.12937000393867493 0.36927399039268494 0.25418099761009216 0.5083850026130676 0.09150099754333496 -0.07701899856328964
挖掘 0.11406499892473221 0.1399870067834854 0.28086501359939575 -0.037636999040842056 0.07068599760532379 0.018383000046014786 -0.14106999337673187 -0.3713589906692505 0.432096004486084 -0.29743701219558716 -0.11357899755239487 0.2759999930858612 0.3855229914188385 0.3070580065250397 -0.3523640036582947 -0.18661099672317505 0.5063790082931519 0.540910005569458 0.28631100058555603 -0.10257600247859955 0.03244899958372116 -0.1644739955663681 0.3895840048789978 -0.07970000058412552 -0.33801400661468506 0.10516899824142456 -0.19095100462436676 -0.004449999891221523 -0.3458069860935211 0.13637499511241913 -0.1710440069437027 0.12933200597763062 -0.25316300988197327 0.3935390114784241 0.3113439977169037 0.581296980381012 0.1423960030078888 0.03385299816727638 0.08886999636888504 -0.040766000747680664 0.029472999274730682 -0.061581000685691833 0.02356399968266487 0.16663500666618347 0.09102699905633926 0.13000699877738953 -0.5354099869728088 -0.47144201397895813 -0.043678998947143555 -0.29259198904037476 0.15425799787044525 -0.010525000281631947 -0.3088270127773285 0.12635299563407898 0.26106899976730347 -0.11468300223350525 0.6025710105895996 0.2345840036869049 -0.13710099458694458 0.5142679810523987 0.3604249954223633 -0.28974300622940063 -0.14791400730609894 0.12914100289344788 -0.033424001187086105 -0.15828199684619904 0.24452699720859528 -0.007664000149816275 0.5461789965629578 0.04609600082039833 -0.4456009864807129 -0.10053099691867828 -0.0797170028090477 -0.3489460051059723 0.0878319963812828 -0.18079400062561035 0.0971359983086586 -0.42915698885917664 0.07360599935054779 -0.02317900024354458 0.050572000443935394 -0.27876898646354675 0.17233100533485413 0.18590299785137177 -0.5261179804801941 0.3942610025405884 -0.4544849991798401 -0.03689099848270416 0.04439999908208847 0.3000810146331787 -0.0854170024394989 -0.1847199946641922 -0.05476599931716919 -0.46725699305534363 -0.4005579948425293 -0.20642299950122833 -0.0655289962887764 0.12505699694156647 0.05756999924778938 -0.007476999890059233 0.29993900656700134 -0.26548901200294495 -0.3918350040912628 -0.15046200156211853 0.13177600502967834 0.03740299865603447 -0.0031580000650137663 0.15465499460697174 0.06975899636745453 0.4728449881076813 0.19882500171661377 0.1839819997549057 -0.1416119933128357 0.026472000405192375 -0.40805500745773315 -0.332489013671875 -0.11992499977350235 0.3668990135192871 0.38960000872612 0.29619300365448 0.17499099671840668 -0.24619999527931213 0.41059398651123047 0.006376999896019697 -0.3530150055885315 0.7250649929046631 -0.3772270083427429 0.1110680028796196 0.18923799693584442 0.0638360008597374 -0.15244300663471222 0.059376999735832214 -0.11297199875116348 -0.1853490024805069 0.07743000239133835 0.19723600149154663 -0.24247600138187408 -0.2761639952659607 0.12740500271320343 0.06879100203514099 -0.08946900069713593 0.1957930028438568 -0.3159469962120056 -0.040908001363277435 -0.9490969777107239 -0.17004600167274475 0.34442299604415894 -0.37564799189567566 0.09779799729585648 -0.17340199649333954 0.3417679965496063 0.3064740002155304 -0.22758500277996063 -0.028728000819683075 -0.12382999807596207 0.2182680070400238 0.2786650061607361 -0.4681060016155243 0.21163199841976166 0.07675900310277939 -0.26990899443626404 0.18065400421619415 -0.004348999820649624 -0.013353000394999981 -0.24684299528598785 0.041032999753952026 0.25439900159835815 -0.026484999805688858 0.19195300340652466 0.08531799912452698 -0.016103999689221382 -0.13158999383449554 0.04373199865221977 -0.13893400132656097 0.07678099721670151 0.15119899809360504 -0.3223879933357239 0.2608500123023987 0.07299400120973587 0.049564000219106674 -0.08153499662876129 -0.204367995262146 -0.09103000164031982 -0.34076398611068726 -0.18386100232601166 0.5027819871902466 -0.17636600136756897 0.14164400100708008 0.07512400299310684 0.3156319856643677 0.08016200363636017 -0.018347999081015587 0.5645549893379211 -0.4703649878501892 0.06775999814271927 -0.06853599846363068 0.10952699929475784 -0.037356000393629074 -0.47565099596977234 0.45422598719596863 0.10689400136470795 0.45572999119758606 -0.3471989929676056 0.3598710000514984 0.38729700446128845 0.079926997423172 0.2615070044994354 0.3435100018978119 -0.2826269865036011 -0.6558799743652344 -0.20987600088119507 0.21166400611400604 -0.054349999874830246 -0.06814199686050415 0.20568400621414185 0.0972839966416359 0.29297900199890137 -0.22886399924755096 -0.1617259979248047 -0.01647000014781952 -0.18068699538707733 -0.22253400087356567 -0.10256599634885788 0.16617600619792938 0.515129029750824 0.3273720145225525 -0.12830199301242828 0.039847999811172485 0.10664399713277817 -0.2877509891986847 -0.23879900574684143 -0.34025898575782776 0.5622789859771729 0.007668000180274248 -0.019020000472664833 0.07853300124406815 -0.0062699997797608376 -0.046904999762773514 -0.05319499969482422 0.02988399937748909 0.146138995885849 -0.1722639948129654 -0.13282300531864166 -0.024497000500559807 -0.22693100571632385 0.29154300689697266 -0.3590709865093231 -0.21502399444580078 -0.2243269979953766 -0.18290500342845917 -0.10070999711751938 -0.0643170028924942 -0.05766500160098076 0.3447880148887634 0.06789900362491608 -0.04577299952507019 -0.013605000451207161 -0.5388259887695312 -0.0633770003914833 -0.15093599259853363 0.09633299708366394 -0.09814900159835815 -0.4474000036716461 0.29989200830459595 0.16898700594902039 -0.6149759888648987 -0.20618599653244019 0.19196699559688568 -0.48974499106407166 0.04817099869251251 -0.3350929915904999 0.4653869867324829 -0.6682350039482117 -0.14680999517440796 0.047958001494407654 0.5883510112762451 -0.3287599980831146 -0.08294200152158737 0.6582249999046326 0.5348449945449829 0.04427399858832359 0.1677349954843521 -0.637037992477417 -0.3641960024833679 0.40167200565338135 0.2537209987640381 -0.31342199444770813 0.10361800342798233 -0.4040530025959015 0.18637800216674805 0.1009650006890297 -0.15690599381923676 0.4028930068016052 -0.0529169999063015 0.2359520047903061 0.2823149859905243 0.24776500463485718 0.18621399998664856 0.21686400473117828 -0.26636698842048645
就是 0.012884000316262245 0.015204000286757946 0.12669700384140015 -0.06771799921989441 -0.1135609969496727 0.051747001707553864 0.031603001058101654 -0.2626500129699707 -0.20789800584316254 0.10791800171136856 -0.2977440059185028 0.3183239996433258 0.2890569865703583 0.25439199805259705 -0.07171300053596497 0.054572999477386475 -0.07404100149869919 0.03518600016832352 0.18622399866580963 0.09380999952554703 0.10805000364780426 0.021517999470233917 -0.008565999567508698 0.012861000373959541 -0.5259060263633728 0.3555479943752289 -0.09188099950551987 0.23740799725055695 -0.08311600238084793 -0.10382000356912613 0.5996339917182922 0.16837100684642792 0.08804400265216827 0.2615419924259186 0.1963540017604828 0.14323000609874725 0.17958199977874756 0.2502500116825104 -0.20558899641036987 0.2257860004901886 -0.14563199877738953 0.02648100070655346 -0.02931099943816662 -0.18038499355316162 0.2424899935722351 -0.18692800402641296 -0.17061200737953186 0.09638100117444992 0.31888899207115173 -0.0811230018734932 0.3682900071144104 0.10240499675273895 0.018441999331116676 0.007029999978840351 0.07128400355577469 -0.08260700106620789 0.10551100224256516 0.05900900065898895 -0.35278499126434326 0.01779799908399582 0.2428939938545227 -0.05454599857330322 0.048687998205423355 0.059122998267412186 -0.14865699410438538 0.20231199264526367 -0.09474600106477737 -0.17966599762439728 0.03818200156092644 0.22558000683784485 -0.37246400117874146 -0.3988730013370514 0.2075430005788803 -0.20866400003433228 0.1370760053396225 -0.15494099259376526 0.16783800721168518 0.27220699191093445 -0.08161299675703049 -0.0932760015130043 -0.33067500591278076 0.09728600084781647 -0.06789100170135498 -0.1593089997768402 -0.17635299265384674 0.05816600099205971 -0.08801999688148499 0.18147499859333038 -0.2873310148715973 -0.045944999903440475 0.15116700530052185 0.11866500228643417 -0.1742279976606369 -0.12244299799203873 -0.2109300047159195 -0.27261900901794434 -0.30586498975753784 0.017051000148057938 0.247981995344162 -0.053082000464200974 -0.05602699890732765 -0.10550200194120407 -0.23585599660873413 0.05470599979162216 0.2210710048675537 0.011149000376462936 0.11324600130319595 -0.00544800003990531 -0.19571299850940704 0.37661999464035034 0.02539999969303608 0.09597299993038177 -0.16939499974250793 -0.2643379867076874 0.17330500483512878 -0.11816000193357468 -0.024782000109553337 0.29530900716781616 -0.007964000105857849 -0.25833800435066223 0.06779100000858307 0.0545319989323616 0.039872001856565475 -0.10207200050354004 0.011655000038444996 0.2938219904899597 0.11073900014162064 -0.005874000024050474 -0.13194100558757782 -0.0011660000309348106 -0.030806999653577805 -0.01623000018298626 -0.09876400232315063 -0.04209800064563751 0.04387800022959709 -0.13388299942016602 0.11620999872684479 -0.1452769935131073 -0.04055299982428551 -0.08299600332975388 -0.0014380000066012144 0.049626998603343964 -0.03458100184798241 0.11287099868059158 -0.3207089900970459 0.20483100414276123 0.22607000172138214 0.047958001494407654 -0.13053399324417114 0.05069199949502945 0.16269099712371826 0.07570599764585495 -0.18226100504398346 0.3383379876613617 0.010638999752700329 0.26716598868370056 0.1266860067844391 0.04875899851322174 0.054235998541116714 -0.16907599568367004 -0.09379799664020538 -0.08579500019550323 -0.10619000345468521 -0.052000001072883606 -0.19123800098896027 0.19098100066184998 0.2959440052509308 0.11866600066423416 -0.03418999910354614 -0.015021000057458878 0.2026599943637848 -0.09386300295591354 -0.19623099267482758 0.018448999151587486 0.1717739999294281 -0.21256999671459198 -0.08436600118875504 -0.13599100708961487 -0.03361999988555908 -0.09094899892807007 -0.2530510127544403 -0.00013600000238511711 0.09516999870538712 -0.08959800004959106 0.18854400515556335 0.006833000108599663 -0.26263800263404846 -0.06507600098848343 -0.18387599289417267 0.21997100114822388 -0.33403998613357544 0.0160559993237257 0.1542849987745285 -0.12499599903821945 0.27243900299072266 -0.10451500117778778 -0.2769010066986084 -0.005880000069737434 -0.2837350070476532 -0.04803299903869629 -0.0543069988489151 0.3215709924697876 0.08696100115776062 -0.16534100472927094 0.05146300047636032 -0.3129650056362152 0.2342810034751892 -0.07613100111484528 0.1426209956407547 -0.04510800167918205 0.18449999392032623 -0.04977700114250183 -0.13134799897670746 -0.1407269984483719 0.07464800029993057 0.11211799830198288 -0.07744800299406052 -0.19781899452209473 0.03681899979710579 -0.1718900054693222 -0.3043630123138428 -0.20554299652576447 -0.04291899874806404 0.10309500247240067 0.03985200077295303 0.1817380040884018 0.14701500535011292 -0.06726299971342087 0.2369150072336197 -0.26286301016807556 0.03836600109934807 0.33500099182128906 0.00044800000614486635 -0.031720999628305435 -0.2053460031747818 0.03291499987244606 0.44979700446128845 0.06449700146913528 -0.2635650038719177 0.2663460075855255 -0.02882000058889389 0.26163798570632935 0.075934998691082 -0.0025949999690055847 -0.011858000420033932 -0.1756500005722046 -0.14351999759674072 -0.16079199314117432 -0.12437599897384644 0.24939699470996857 0.24809199571609497 0.019061999395489693 0.03057599999010563 -0.1716099977493286 0.22583800554275513 -0.027334999293088913 -0.2528400123119354 -0.0005469999741762877 0.38197600841522217 -0.035061001777648926 -0.05243900045752525 -0.026853999122977257 0.11296100169420242 0.08555799722671509 0.11282599717378616 0.2313529998064041 0.09870100021362305 -0.021632999181747437 0.18095999956130981 0.007608999963849783 -0.051660001277923584 0.43137601017951965 -0.20325399935245514 -0.21747800707817078 0.4284699857234955 -0.016465000808238983 -0.15762899816036224 0.0829399973154068 -0.1296209990978241 -0.10332000255584717 -0.005861999932676554 -0.1771019995212555 -0.24878999590873718 -0.26793500781059265 0.338685005903244 0.3389750123023987 -0.04102100059390068 -0.14701999723911285 0.05722799897193909 -0.2744300067424774 0.029930999502539635 0.28810200095176697 -0.04469899833202362 0.46456700563430786 -0.021656999364495277 0.006074000149965286 -0.13980400562286377 0.10666199773550034 -0.11225999891757965 -0.26883798837661743
反映 0.10302700102329254 -0.06159999966621399 -0.11598800122737885 0.10704000294208527 -0.1739100068807602 -0.04456400126218796 0.3677830100059509 0.13452500104904175 0.14836299419403076 0.19795900583267212 -0.0017760000191628933 0.532355010509491 -0.000750000006519258 0.4921819865703583 -0.07538200169801712 -0.003487000009045005 0.05611199885606766 0.24874800443649292 -0.07165399938821793 -0.12803000211715698 0.11528900265693665 -0.24411499500274658 0.08229999989271164 -0.5784549713134766 -0.37257200479507446 0.4371500015258789 0.5315719842910767 0.24720799922943115 -0.15824300050735474 -0.11212600022554398 0.2569279968738556 0.14743700623512268 -0.06444600224494934 0.13165199756622314 -0.024927999824285507 0.4612630009651184 -0.306782990694046 0.21374200284481049 0.13102999329566956 0.29987800121307373 -0.13637800514698029 -0.08084700256586075 0.011351999826729298 -0.08722499758005142 0.26037800312042236 -0.09060899913311005 -0.22956199944019318 0.14657199382781982 -0.00699200015515089 -0.3652989864349365 0.42465001344680786 0.3862130045890808 0.1809619963169098 -0.08343999832868576 0.05152300000190735 -0.2595509886741638 -0.055977001786231995 0.01411799993366003 -0.319148987531662 0.22188700735569 0.1474599987268448 -0.4055899977684021 -0.14193400740623474 0.5977450013160706 0.1924850046634674 -0.10412699729204178 0.10309799760580063 -0.19160600006580353 0.08737599849700928 0.4106929898262024 0.017532000318169594 -0.2300339937210083 -0.35802799463272095 -0.3479999899864197 0.013172999955713749 -0.6723600029945374 0.4020580053329468 0.09033100306987762 -0.34735599160194397 0.13871799409389496 -0.20091399550437927 -0.2826870083808899 0.3404580056667328 0.40166598558425903 -0.037085000425577164 -0.12673699855804443 -0.1670760065317154 0.4568589925765991 0.23247399926185608 -0.2074269950389862 0.24949300289154053 -0.10408899933099747 0.021341999992728233 -0.36600300669670105 0.01681699976325035 0.20726099610328674 -0.4206809997558594 -0.4239560067653656 -0.18031400442123413 -0.2495799958705902 0.29363900423049927 -0.2857849895954132 0.17069000005722046 0.06963200122117996 0.15303100645542145 -0.3051449954509735 -0.4679889976978302 -0.0959869995713234 -0.3122580051422119 -0.05391399934887886 -0.20877400040626526 -0.10719600319862366 -0.2736479938030243 0.00877700001001358 -0.04533199965953827 -0.1190899983048439 -0.19697999954223633 0.10901600122451782 0.36108899116516113 -0.26809799671173096 -0.15336699783802032 0.04951699823141098 -0.2704260051250458 0.10733500123023987 -0.08056599646806717 0.4137060046195984 -0.18477800488471985 0.3591429889202118 0.1820330023765564 0.04506000131368637 0.14155499637126923 0.147256001830101 -0.04541400074958801 0.07628899812698364 0.09579499810934067 0.4746420085430145 -0.009123999625444412 -0.22306199371814728 -0.027977999299764633 0.38314399123191833 0.15182000398635864 0.19199000298976898 -0.23492799699306488 -0.390174001455307 -0.5205609798431396 0.29976800084114075 -0.2919130027294159 -0.38875600695610046 0.11270300298929214 -0.10725100338459015 0.2775590121746063 0.08925200253725052 -0.15984800457954407 0.4761349856853485 -0.13037200272083282 0.18226300179958344 0.1370529979467392 -0.3069570064544678 -0.16703100502490997 -0.011721000075340271 0.15434600412845612 0.1564590036869049 -0.26514101028442383 -0.33037400245666504 0.023538000881671906 0.28313300013542175 0.08517999947071075 0.12632599472999573 0.19659699499607086 0.06664200127124786 0.4796999990940094 -0.060548000037670135 -0.17495399713516235 -0.2282859981060028 0.07561600208282471 -0.2731670141220093 -0.1519159972667694 -0.05327500030398369 0.32247498631477356 0.20527899265289307 -0.39999398589134216 -0.12012200057506561 -0.5851489901542664 -0.16832900047302246 0.31939899921417236 0.034283000975847244 0.1792680025100708 -0.19877800345420837 -0.1609259992837906 -0.17945800721645355 -0.11175400018692017 -0.1395370066165924 0.012048999778926373 0.09623199701309204 -0.12972000241279602 0.15599000453948975 -0.18392999470233917 0.17045900225639343 -0.3628149926662445 -0.2507050037384033 -0.3938950002193451 0.06176700070500374 -0.13821999728679657 0.07634499669075012 -0.15409700572490692 -0.40689200162887573 0.5554379820823669 -0.043411001563072205 0.03956799954175949 -0.19732800126075745 0.5349590182304382 0.041533999145030975 -0.41924598813056946 0.12430799752473831 0.3784100115299225 -0.1391260027885437 0.08843500167131424 -0.03440999984741211 0.2073419988155365 0.245168998837471 -0.14729300141334534 -0.02112100087106228 -0.11305099725723267 0.21821799874305725 0.10191400349140167 0.01567699946463108 -0.14526499807834625 -0.19050399959087372 0.13046400249004364 0.1629980057477951 0.18890999257564545 -0.03945000097155571 0.08835700154304504 -0.14423799514770508 0.30736100673675537 -0.06158899888396263 0.07556000351905823 0.05964700132608414 -0.37077799439430237 0.42080700397491455 0.25047600269317627 0.2832440137863159 -0.4827579855918884 0.25985801219940186 0.03437599912285805 -0.15882599353790283 -0.0722619965672493 0.19751200079917908 0.07104700058698654 -0.18098199367523193 -0.15085899829864502 -0.1401280015707016 0.19995099306106567 -0.16026300191879272 0.05967700108885765 0.3780539929866791 -0.10747899860143661 -0.20577700436115265 0.1312050074338913 0.15639600157737732 0.10347499698400497 0.04763299971818924 -0.04883499816060066 0.008546999655663967 -0.10811399668455124 -0.16721700131893158 0.3733240067958832 0.21783100068569183 -0.1835470050573349 0.2820590138435364 0.07351700216531754 -0.026837000623345375 -0.20676900446414948 -0.20144200325012207 0.3424859941005707 0.2971700131893158 0.18391500413417816 0.11038699746131897 -0.1346530020236969 0.2119790017604828 0.31449300050735474 -0.03699500113725662 -0.18875999748706818 -0.207504004240036 0.26428699493408203 -0.36316901445388794 -0.01752699911594391 -0.18327899277210236 -0.5371249914169312 -0.1910810023546219 0.3166469931602478 0.26347100734710693 0.29124099016189575 -0.049247998744249344 0.11122100055217743 0.18735599517822266 -0.040585000067949295 0.10172399878501892 0.2675490081310272 -0.2703549861907959
某个 0.15314799547195435 0.14640399813652039 0.24292999505996704 -0.012780999764800072 -0.16888700425624847 -0.0011569999624043703 0.3797279894351959 -0.2731409966945648 -0.02928999997675419 0.19798099994659424 -0.21376200020313263 -0.11533199995756149 0.06970000267028809 0.24995200335979462 0.22794699668884277 0.05886099860072136 0.04399999976158142 0.4538249969482422 0.06160299852490425 -0.23994800448417664 0.04505399987101555 0.05123300105333328 0.5015699863433838 -0.06066400185227394 0.18337100744247437 0.379487007856369 0.203698992729187 0.6455940008163452 -0.11238899827003479 0.24911199510097504 -0.20065300166606903 0.40247398614883423 -0.05020499974489212 0.01347300037741661 0.4216980040073395 0.3373599946498871 0.18589100241661072 -0.25240299105644226 -0.18574799597263336 -0.03387700021266937 -0.22479300200939178 -0.11913900077342987 0.3812299966812134 -0.023591000586748123 0.1758670061826706 -0.21194200217723846 -0.4177300035953522 -0.23319800198078156 -0.2807900011539459 -0.31324300169944763 -0.08348000049591064 -0.1240760013461113 0.340021014213562 0.10614900290966034 -0.046192001551389694 0.08014699816703796 -0.02105499990284443 0.1648460030555725 -0.1759440004825592 -0.07031600177288055 0.11448200047016144 -0.26125699281692505 0.0318400003015995 0.21623599529266357 0.3821839988231659 -0.3819420039653778 -0.09515800327062607 -0.3871619999408722 -0.19164599478244781 -0.17131300270557404 -0.2239370048046112 -0.393994003534317 0.22863399982452393 -0.2966249883174896 0.036212000995874405 -0.3383280038833618 0.5919179916381836 0.1990489959716797 -0.18858100473880768 -0.1791290044784546 -0.36113500595092773 -0.49593600630760193 0.2721090018749237 0.004809999838471413 -0.15114200115203857 -0.16340500116348267 -0.04442499950528145 0.6389570236206055 0.012391000054776669 -0.3751699924468994 0.25652098655700684 0.285057008266449 0.02623100019991398 -0.5505419969558716 -0.026621999219059944 -0.2600570023059845 -0.4010950028896332 -0.34657299518585205 -0.02072099968791008 0.18179099261760712 0.36275801062583923 0.030061999335885048 0.0654980018734932 -0.13298100233078003 -0.1191750019788742 -0.2888439893722534 -0.3052479922771454 -0.1320520043373108 -0.23980599641799927 0.26756998896598816 0.07504499703645706 0.0004130000015720725 -0.22650299966335297 -0.06711900234222412 0.13718099892139435 -0.14451700448989868 0.12367600202560425 -0.06100599840283394 0.16488899290561676 -0.37522798776626587 -0.23082000017166138 0.11448200047016144 -0.039744000881910324 -0.1012289971113205 -0.3114120066165924 0.4649389982223511 -0.1308950036764145 0.3906260132789612 -0.0867689996957779 0.0464089997112751 -0.25905200839042664 0.036407001316547394 -0.01525299996137619 -0.3031409978866577 -0.00028700000257231295 0.2733049988746643 0.18711599707603455 0.04861000180244446 0.126242995262146 -0.002004999900236726 0.015258999541401863 -0.10757900029420853 -0.02212899923324585 0.23757599294185638 -0.37385401129722595 0.45755699276924133 -0.11999800056219101 0.30369099974632263 -0.3670940101146698 0.119098000228405 0.04283300042152405 -0.5439969897270203 -0.08382000029087067 0.3656019866466522 -0.04239000007510185 -0.335314005613327 0.3199639916419983 0.01694599911570549 -0.07404699921607971 0.18046900629997253 -0.252346009016037 -0.19045600295066833 -0.2089489996433258 -0.15786400437355042 -0.5248540043830872 -0.30287501215934753 0.21690000593662262 0.32816600799560547 -0.28725600242614746 -0.03028300032019615 0.1031700000166893 -0.17931699752807617 -0.286080002784729 -0.08994700014591217 0.718300998210907 -0.04078499972820282 -0.1871889978647232 -0.053068000823259354 0.03463299944996834 0.25227800011634827 -0.3860589861869812 -0.1570660024881363 -0.005104000214487314 0.3199250102043152 0.29757198691368103 0.3462199866771698 0.20189200341701508 0.30362799763679504 -0.15114399790763855 0.0835300013422966 -0.4647110104560852 0.07939299941062927 0.45704200863838196 0.4769049882888794 0.029388999566435814 -0.4462699890136719 -0.27331799268722534 -0.5130100250244141 -0.5961499810218811 0.014494000002741814 0.049274999648332596 0.5265169739723206 -0.2329690009355545 -0.32829201221466064 0.268326997756958 0.17250899970531464 0.01569399982690811 -0.4327479898929596 -0.09740599989891052 -0.27042099833488464 0.11052300035953522 0.11934000253677368 -0.39408400654792786 0.04417499899864197 0.17085599899291992 0.20043200254440308 0.03613099828362465 -0.3787199854850769 0.038437001407146454 -0.22675299644470215 -0.2598609924316406 -0.45951300859451294 0.024382000789046288 0.43387898802757263 -0.38727301359176636 0.013647999614477158 0.08894199877977371 -0.025915000587701797 0.17027400434017181 -0.2583400011062622 0.30495399236679077 0.3568199872970581 -0.28582799434661865 -0.02290000021457672 -0.15899600088596344 0.15010200440883636 0.4279550015926361 -0.17524799704551697 -0.40616700053215027 0.09378500282764435 -0.10507900267839432 0.14878800511360168 0.16640500724315643 0.25676000118255615 -0.20197999477386475 0.06781800091266632 -0.22319699823856354 0.4679810106754303 -0.5917750000953674 -0.46209099888801575 0.04133500158786774 -0.11045800149440765 -0.3860599994659424 -0.018115000799298286 0.01067500002682209 0.16129599511623383 -0.11793400347232819 -0.24967999756336212 0.32989001274108887 -0.3468039929866791 0.0012209999840706587 0.25515300035476685 -0.13948699831962585 0.29256901144981384 0.2597599923610687 -0.027341999113559723 0.13025200366973877 0.4985400140285492 0.26065298914909363 0.23434700071811676 0.6100929975509644 0.08391500264406204 -0.10048200190067291 -0.1845259964466095 -0.07094600051641464 0.451867014169693 0.15048399567604065 -0.08746799826622009 0.04154499992728233 -0.07061400264501572 -0.04502499848604202 0.31918299198150635 -0.3912850022315979 -0.5115820169448853 0.8874629735946655 0.13461999595165253 0.00903099961578846 0.06025800108909607 -0.013647999614477158 0.04843999817967415 -0.0325779989361763 0.3715510070323944 0.18493400514125824 0.4995479881763458 0.20868700742721558 -0.0979280024766922 0.08813700079917908 0.33554598689079285 -0.05595400184392929 -0.1744769960641861
事物 0.304298996925354 0.09110800176858902 0.3255549967288971 0.025621000677347183 -0.19746099412441254 0.20990100502967834 0.40165001153945923 -0.18319599330425262 -0.3533790111541748 0.04950400069355965 -0.08693999797105789 0.14528800547122955 0.09722799807786942 0.09158799797296524 -0.1883549988269806 -0.19536900520324707 0.08238399773836136 -0.053415000438690186 0.47130799293518066 -0.03332599997520447 0.17133000493049622 -0.32767701148986816 0.3197680115699768 -0.06290800124406815 -0.11766300350427628 0.12135100364685059 -0.00622900016605854 0.5480149984359741 -0.12343700230121613 -0.07972999662160873 -0.0763930007815361 0.2363090068101883 0.1707340031862259 0.2604990005493164 0.7034310102462769 -0.14339600503444672 -0.2222999930381775 0.10193800181150436 -0.29020699858665466 0.5681610107421875 -0.30578601360321045 0.3593379855155945 -0.18667900562286377 -0.05258699879050255 0.39676401019096375 0.2008039951324463 0.12930600345134735 -0.022461000829935074 -0.17655900120735168 0.4055750072002411 0.30963000655174255 0.18917900323867798 0.36568498611450195 -0.25999999046325684 0.17448200285434723 0.2612070143222809 0.05205399915575981 0.06634599715471268 -0.3534109890460968 0.1781580001115799 0.22384999692440033 -0.0544620007276535 -0.15331900119781494 0.4409109950065613 0.2540769875049591 0.15538500249385834 -0.03742000088095665 0.20465999841690063 0.17091499269008636 0.11047899723052979 -0.1312520056962967 -0.35787200927734375 0.1156810000538826 0.19289200007915497 0.4956650137901306 -0.930429995059967 0.4603419899940491 0.20215600728988647 -0.09956400096416473 -0.002515000058338046 -0.3896769881248474 -0.4222469925880432 0.08235300332307816 -0.07062999904155731 -0.14556999504566193 0.04397900030016899 -0.18338100612163544 0.5881680250167847 0.30494800209999084 -0.14601799845695496 0.44605401158332825 -0.000944000028539449 0.16312099993228912 -0.3223789930343628 -0.017952000722289085 -0.01684500090777874 -0.3479970097541809 -0.38984400033950806 0.04997500032186508 -0.04224099963903427 0.47082701325416565 0.4504149854183197 -0.29063698649406433 0.3136410117149353 0.22118300199508667 -0.37418800592422485 -0.6692839860916138 0.2822969853878021 -0.009190999902784824 0.07639099657535553 -0.0988759994506836 0.14312100410461426 -0.17496199905872345 -0.00598399993032217 0.06652700155973434 -0.48573699593544006 0.2896359860897064 0.8088279962539673 0.12290100008249283 -0.4331200122833252 -0.5933660268783569 0.09728600084781647 0.012808999978005886 -0.1108039990067482 -0.19053399562835693 0.10496799647808075 0.04120099917054176 -0.03259599953889847 0.10728999972343445 0.32319000363349915 0.15771399438381195 0.061528999358415604 0.04669899865984917 0.0363599993288517 -0.17034399509429932 0.33872199058532715 0.05176499858498573 -0.835781991481781 -0.15709400177001953 0.027543000876903534 -0.09178099781274796 0.16783000528812408 -0.028408000245690346 0.006455000024288893 -0.035300999879837036 0.1636189967393875 0.0525050014257431 0.32082998752593994 0.0109479995444417 -0.0007529999711550772 -0.006945000030100346 0.07670100033283234 -0.2801940143108368 0.10552000254392624 -0.09339000284671783 0.2112089991569519 0.21153299510478973 -0.40529000759124756 0.07633399963378906 -0.06708800047636032 -0.12732799351215363 -0.055955998599529266 0.00022600000374950469 0.058056000620126724 -0.16856500506401062 0.24485300481319427 0.11167299747467041 -0.01885399967432022 -0.23345999419689178 -0.12546400725841522 0.3249239921569824 -0.5248630046844482 -0.20169100165367126 -0.643392026424408 0.1626330018043518 -0.08565399795770645 -0.18061499297618866 -0.17221499979496002 0.6416869759559631 -0.28478100895881653 -0.272940993309021 -0.18396799266338348 0.25897499918937683 -0.017024999484419823 0.25791099667549133 0.09134399890899658 0.07868800312280655 0.2076610028743744 -0.09909799695014954 -0.05138299986720085 0.11658400297164917 -0.12827900052070618 0.17644000053405762 0.20199500024318695 -0.2599009871482849 -0.20090100169181824 0.04928499832749367 -0.6512830257415771 -0.17390500009059906 -0.1475369930267334 -0.22632600367069244 0.41842299699783325 -0.30691999197006226 0.20799100399017334 -0.09247999638319016 0.096949003636837 -0.12848000228405 0.096049003303051 -0.13203400373458862 -0.740444004535675 0.10357899963855743 -0.08793000131845474 -0.07251299917697906 -0.19812799990177155 0.5805839896202087 0.2530980110168457 -0.4681220054626465 0.1426759958267212 -0.19860699772834778 0.0355059988796711 -0.3250359892845154 -0.12488699704408646 -0.28106799721717834 -0.04494599997997284 -0.4203470051288605 0.20661099255084991 0.3190479874610901 -0.1849299967288971 0.006579999811947346 0.35018500685691833 0.1152539998292923 0.04952999949455261 0.14447100460529327 0.03016600012779236 -0.15045399963855743 0.13207900524139404 0.10968499630689621 -0.38381099700927734 -0.09432099759578705 0.30547699332237244 0.017412999644875526 0.4720909893512726 0.37258198857307434 0.29331400990486145 -0.33580899238586426 0.4254240095615387 0.3538520038127899 -0.13969500362873077 -0.5848940014839172 -0.17232899367809296 -0.09006699919700623 -0.4372900128364563 -0.13650399446487427 0.5864800214767456 -0.5795090198516846 -0.10404700040817261 -0.046911001205444336 -0.14188799262046814 0.008806000463664532 -0.38517698645591736 -0.33196699619293213 -0.2307009994983673 -0.1516759991645813 -0.43998000025749207 0.07140800356864929 -0.03825699910521507 0.24152299761772156 0.2596549987792969 0.023010000586509705 0.3983199894428253 0.2941249907016754 0.6048129796981812 0.37052300572395325 -0.056676000356674194 0.20632700622081757 0.33618399500846863 0.2516709864139557 0.2203110009431839 0.3120799958705902 -0.05192900076508522 0.0018609999679028988 -0.03336000069975853 -0.1779869943857193 -0.26819199323654175 0.16541199386119843 0.10106100142002106 -0.023339999839663506 0.12728500366210938 0.1366409957408905 0.13742999732494354 0.27008798718452454 0.4100320041179657 -0.07791899889707565 0.33114001154899597 0.3346549868583679 0.21311399340629578 -0.147707000374794 0.10280700027942657 0.0814019963145256 -0.400301992893219
与 0.08844999969005585 0.11434800177812576 -0.07942699640989304 -0.13983799517154694 -0.051256999373435974 0.09972900152206421 0.2096560001373291 -0.2497130036354065 0.18745699524879456 -0.03713800013065338 0.09404300153255463 -0.06206199899315834 0.01423799991607666 -0.05381400138139725 -0.39183899760246277 -0.21201500296592712 -0.04090899974107742 0.2587299942970276 -0.34819701313972473 0.2247380018234253 -0.06548299640417099 -0.07378099858760834 0.08199500292539597 -0.09129700064659119 -0.1148580014705658 0.24502399563789368 0.37505000829696655 0.0038270000368356705 -0.06142900139093399 -0.03680099919438362 0.2516930103302002 -0.2112410068511963 0.06709600239992142 0.044929999858140945 -0.06765300035476685 0.06290800124406815 -0.3261469900608063 -0.14499199390411377 0.2531780004501343 0.1807049959897995 0.20935900509357452 -0.0034050000831484795 0.08301399648189545 -0.1630759984254837 0.0184749998152256 0.05876399949193001 0.02749899961054325 -0.26775598526000977 0.10365699976682663 -0.12178800255060196 0.3866400122642517 -0.0015450000064447522 -0.05750599876046181 -0.2940889894962311 -0.0960879996418953 -0.3421509861946106 -0.06671600043773651 -0.2207610011100769 -0.30329400300979614 0.07282599806785583 0.19941000640392303 -0.15406300127506256 -0.01766899973154068 0.007075999863445759 -0.046261999756097794 -0.1353210061788559 0.01591400057077408 -0.33523300290107727 -0.01945899985730648 0.22554899752140045 -0.11360400170087814 0.005836000200361013 0.03976700082421303 -0.011807999573647976 0.20509999990463257 -0.1505730003118515 0.04478999972343445 -0.22313499450683594 -0.14591999351978302 -0.18532299995422363 0.036389000713825226 0.03557699918746948 -0.09568999707698822 -0.042426999658346176 0.05097600072622299 -0.1839209944009781 -0.01854100078344345 0.054304998368024826 0.016581999137997627 -0.06813099980354309 0.07754799723625183 -0.09976200014352798 0.009069999679923058 -0.3453429937362671 0.11753199994564056 0.011536999605596066 -0.10947400331497192 -0.412757009267807 0.055052999407052994 0.020322000607848167 0.05536099895834923 0.2013700008392334 -0.11475899815559387 0.10961999744176865 0.3163689970970154 -0.3486129939556122 0.04960300028324127 -0.2184240072965622 -0.15690000355243683 0.24244199693202972 -0.25161099433898926 -0.10221800208091736 -0.11321499943733215 0.1048630028963089 -0.06767699867486954 -0.37659400701522827 -0.16250599920749664 -0.12555499374866486 0.21315599977970123 -0.02230999991297722 -0.0011230000527575612 0.07280600070953369 -0.1624779999256134 -0.001702000037766993 -0.12658600509166718 0.02569499984383583 -0.007988999597728252 -0.007726999931037426 0.11657600104808807 0.17851300537586212 0.043053001165390015 0.05023600161075592 -0.03799699991941452 0.03504500165581703 -0.09924200177192688 -0.14793799817562103 0.11778700351715088 -0.14361900091171265 -0.023956000804901123 -0.26390600204467773 0.13342900574207306 -0.19238300621509552 -0.2764509916305542 -0.09990300238132477 -0.4143100082874298 0.37865298986434937 0.20869800448417664 -0.1941470056772232 -0.16496700048446655 0.2770400047302246 0.14520500600337982 0.16609999537467957 -0.19496500492095947 -0.18695099651813507 -0.18060000240802765 0.016404999420046806 -0.08925899863243103 -0.3268510103225708 0.17745299637317657 -0.024473000317811966 -0.18562500178813934 0.29310500621795654 -0.2955940067768097 0.25919800996780396 -0.3968459963798523 -0.03440399840474129 -0.010649999603629112 0.07073699682950974 0.04489799961447716 0.24361999332904816 0.3072269856929779 -0.050269998610019684 -0.07992500066757202 -0.08896999806165695 0.2653050124645233 -0.3896920084953308 -0.08091600239276886 0.12568800151348114 -0.010990000329911709 -0.1762470006942749 0.017664000391960144 -0.3852910101413727 -0.2882179915904999 -0.12938399612903595 0.2952730059623718 0.10955999791622162 0.18995800614356995 0.06925900280475616 -0.2826020121574402 0.10590799897909164 0.17116700112819672 0.40841901302337646 -0.1101749986410141 -0.03188199922442436 -0.014667999930679798 -0.06532400101423264 0.04536699876189232 0.21249400079250336 0.09957800060510635 0.011242000386118889 -0.04574200138449669 0.39243099093437195 0.03179100155830383 0.308135986328125 -0.07972399890422821 -0.31283000111579895 0.15225400030612946 0.15307700634002686 0.5074830055236816 -0.16599099338054657 -0.059470001608133316 0.05069100111722946 -0.13615499436855316 -0.5069310069084167 0.14201800525188446 0.043143998831510544 0.07737299799919128 -0.1707340031862259 0.07444199919700623 -0.104373998939991 -0.11566299945116043 -0.10680700093507767 -0.02258099988102913 0.2194029986858368 -0.005404999945312738 0.2303680032491684 -0.06329300254583359 -0.2553049921989441 0.05822199955582619 -0.09276100248098373 0.16870300471782684 -0.1502240002155304 -0.2445240020751953 -0.18402999639511108 -0.3280330002307892 0.1924780011177063 0.18668699264526367 -0.39922600984573364 0.047770000994205475 -0.18826599419116974 -0.10088899731636047 0.7871649861335754 -0.009743999689817429 0.1344269961118698 -0.2606450021266937 0.035693999379873276 -0.1402519941329956 -0.09855800122022629 0.27347299456596375 -0.07761400192975998 -0.0062060002237558365 -0.04085199907422066 -0.06083400174975395 -0.19285699725151062 0.11684200167655945 0.09571299701929092 -0.17187100648880005 0.13173699378967285 0.09934300184249878 -0.47249001264572144 -0.17413799464702606 0.23672600090503693 0.10371699929237366 0.12328100204467773 -0.08055800199508667 0.19929400086402893 0.05091400071978569 0.05174599960446358 -0.18727800250053406 0.05446299910545349 -0.1381009966135025 0.34654501080513 -0.2913820147514343 0.01485699974000454 -0.04159099981188774 0.2523699998855591 -0.1335570067167282 0.1690409928560257 -0.18226900696754456 0.006837999913841486 0.05315599963068962 0.07714200019836426 0.031449999660253525 -0.03302399814128876 0.26978600025177 0.011381999589502811 0.14319199323654175 0.17601099610328674 -0.03970399871468544 -0.30547499656677246 -0.20472800731658936 0.22550199925899506 0.17699100077152252 0.19773299992084503 -0.23497700691223145 0.05086199939250946 -0.3532339930534363 -0.03687100112438202 0.035262998193502426 0.07370699942111969
其他 0.18564699590206146 0.12438199669122696 0.10883700102567673 -0.01537800021469593 -0.01988299936056137 0.2822209894657135 0.39077499508857727 -0.14940999448299408 0.11980199813842773 -0.012116000056266785 -0.22626300156116486 0.10492800176143646 0.08897200226783752 -0.19633199274539948 0.03333599865436554 -0.15673799812793732 0.020555999130010605 0.3093329966068268 -0.04375699907541275 0.02820800058543682 -0.11195900291204453 -0.3662090003490448 0.2576200067996979 -0.1991250067949295 0.007935999892652035 0.21962100267410278 -0.05534999817609787 0.11569800227880478 -0.23407100141048431 0.24536600708961487 0.007071000058203936 -0.26391899585723877 -0.26240599155426025 -0.05423999950289726 0.32738199830055237 0.14086200296878815 -0.18344800174236298 0.12681899964809418 0.24995200335979462 0.19036099314689636 -0.044780999422073364 -0.25896701216697693 -0.1782809942960739 0.036736998707056046 0.14473600685596466 -0.38572201132774353 -0.21359999477863312 -0.2576630115509033 -0.44698700308799744 -0.28129100799560547 0.19953399896621704 0.11793900281190872 -0.23368600010871887 -0.3319990038871765 0.18912099301815033 -0.06950899958610535 -0.2746430039405823 0.11520600318908691 0.04443399980664253 0.20573300123214722 0.2347240000963211 -0.16301099956035614 0.12841899693012238 0.3908439874649048 0.0518609993159771 -0.36353999376296997 0.014365999959409237 -0.47333601117134094 -0.22481299936771393 0.24171100556850433 -0.25936201214790344 -0.3726620078086853 0.5093280076980591 0.06322800368070602 0.010960999876260757 -0.27779901027679443 0.00800000037997961 0.022343000397086143 0.2330169975757599 -0.026768000796437263 0.10376700013875961 -0.17504000663757324 -0.07200399786233902 0.12854599952697754 -0.3006080090999603 -0.09787499904632568 -0.04227900132536888 0.179626002907753 -0.022799000144004822 0.168723002076149 0.001446999958716333 -0.05314800143241882 -0.041120000183582306 0.06521099805831909 -0.18753500282764435 -0.06418800354003906 -0.30351701378822327 -0.03966600075364113 0.011699999682605267 0.02930399961769581 0.26874399185180664 -0.3473820090293884 0.08105699717998505 -0.48119300603866577 0.06331600248813629 -0.5754640102386475 -0.1910949945449829 -0.18212400376796722 -0.14385299384593964 0.5454769730567932 -0.06811200082302094 0.23978500068187714 0.3341749906539917 0.22192800045013428 0.3377610146999359 -0.06372799724340439 -0.11910100281238556 -0.2906079888343811 0.1118599995970726 -0.0006900000153109431 -0.1695690006017685 0.0868460014462471 -0.19585800170898438 -0.27856600284576416 0.18880300223827362 0.14672599732875824 -0.2788250148296356 0.20408399403095245 0.5181099772453308 -0.1603190004825592 -0.1101519986987114 0.14113900065422058 0.038290999829769135 -0.11876899749040604 -0.10051000118255615 0.13135699927806854 -0.013868000358343124 0.002025000052526593 -0.24944999814033508 0.1482210010290146 -0.016527000814676285 -0.3695479929447174 -0.03171199932694435 -0.1429779976606369 0.0010580000234767795 0.3871850073337555 0.37805598974227905 -0.039333000779151917 0.19911199808120728 0.27102500200271606 0.06947799772024155 0.21420900523662567 0.09057500213384628 0.16150300204753876 -0.09221299737691879 -0.18241700530052185 0.1827930063009262 -0.3185519874095917 0.30827298760414124 0.018456999212503433 0.1528020054101944 -0.002615999896079302 0.18358999490737915 -0.18655499815940857 -0.5810539722442627 0.13834799826145172 0.32501599192619324 0.16158999502658844 0.11450199782848358 -0.02212899923324585 0.3531219959259033 0.2460400015115738 -0.05464800074696541 -0.21825699508190155 0.4273320138454437 -0.6041139960289001 -0.08713500201702118 -0.15423600375652313 -0.10042200237512589 -0.3012009859085083 -0.011749999597668648 -0.1886730045080185 -0.06391900032758713 0.03615200147032738 0.21351000666618347 -0.013981999829411507 -0.15670199692249298 -0.06375099718570709 -0.12019799649715424 0.08399499952793121 -0.022859999909996986 0.07293900102376938 -0.024985000491142273 -0.20725899934768677 -0.10030800104141235 -0.35909199714660645 0.4158340096473694 -0.5430520176887512 -0.15570899844169617 -0.02464500069618225 -0.13912099599838257 0.32047799229621887 0.020116999745368958 0.08399099856615067 0.11870300024747849 0.22227199375629425 0.14161400496959686 -0.11026100069284439 0.19194500148296356 0.019499000161886215 -0.08987999707460403 0.11267299950122833 0.19690600037574768 -0.22180600464344025 0.12839899957180023 -0.032200999557971954 -0.05833899974822998 -0.41095098853111267 0.02150999940931797 -0.2544659972190857 -0.34780699014663696 0.07683800160884857 0.1820479929447174 -0.15788400173187256 -0.19722500443458557 0.13493700325489044 0.1870879977941513 -0.36563199758529663 0.03601299971342087 0.16040900349617004 0.3666430115699768 0.3494749963283539 -0.1835310012102127 -0.2724579870700836 -0.25735801458358765 0.10938200354576111 0.08817800134420395 0.028404999524354935 -0.29925599694252014 0.33519598841667175 -0.3567110002040863 -0.40644600987434387 0.040125999599695206 0.21734899282455444 -0.011893999762833118 -0.2127310037612915 -0.1520570069551468 -0.01512600015848875 -0.2728700041770935 -0.3665499985218048 -0.24146400392055511 -0.2761470079421997 -0.2924480140209198 -0.2792719900608063 -0.1354289948940277 0.23502199351787567 -0.020894000306725502 -0.1991250067949295 0.42660000920295715 -0.2971799969673157 0.17467600107192993 0.20299099385738373 0.31036698818206787 0.08699300140142441 0.2678470015525818 -0.15871599316596985 -0.07649300247430801 -0.07275400310754776 -0.039903998374938965 0.3259370028972626 0.17197799682617188 0.1750040054321289 -0.3019860088825226 -0.19792500138282776 -0.2913669943809509 0.10154300183057785 -0.16552500426769257 0.007153000216931105 -0.08433300256729126 0.007646999787539244 0.129721000790596 -0.0186110008507967 -0.12622900307178497 -0.26106399297714233 0.13374599814414978 -0.049049001187086105 -0.20163799822330475 0.14737699925899506 -0.07768499851226807 -0.134785994887352 -0.13994599878787994 0.2150840014219284 0.27250200510025024 0.14965400099754333 -0.10791700333356857 -0.1159290000796318 -0.1299320012331009 0.11025399714708328 0.3745119869709015 -0.018742000684142113
之间 0.10123399645090103 -0.29352301359176636 -0.18457500636577606 0.11448799818754196 -0.07400400191545486 0.11944500356912613 0.4086979925632477 -0.5464789867401123 0.28898000717163086 0.034807998687028885 0.1118289977312088 -0.18499299883842468 0.20000700652599335 0.004023000132292509 -0.18252700567245483 0.062470000237226486 0.1360819935798645 0.44811901450157166 -0.06903800368309021 -0.3240799903869629 -0.08964399993419647 -0.1277420073747635 -0.025259999558329582 -0.3825939893722534 -0.04512299969792366 0.3253360092639923 0.1241379976272583 0.2413250058889389 -0.28447699546813965 0.17345499992370605 0.09349499642848969 0.2709699869155884 -0.3544430136680603 0.274821013212204 -0.19736699759960175 0.08411899954080582 -0.22531400620937347 0.07465700060129166 0.15519200265407562 -0.1216680034995079 -0.1049640029668808 0.00507699977606535 0.06221799924969673 -0.20000800490379333 0.10925599932670593 0.2635129988193512 -0.2864530086517334 0.004288999829441309 0.2318190038204193 -0.06707099825143814 0.5354980230331421 -0.18445000052452087 -0.0731550008058548 -0.20160900056362152 0.10823900252580643 0.12269700318574905 0.07142899930477142 -0.2749280035495758 -0.03782400116324425 -0.11103100329637527 0.16227899491786957 0.14479699730873108 0.2546069920063019 0.46082499623298645 0.018130000680685043 -0.11958999931812286 0.054958999156951904 -0.29264500737190247 0.38124799728393555 0.3525390028953552 -0.14315199851989746 0.015010000206530094 0.5700309872627258 -0.19722700119018555 -0.12881000339984894 -0.30188098549842834 -0.17114000022411346 0.06986399739980698 0.09749399870634079 -0.0826219990849495 -0.27764999866485596 0.0050650001503527164 -0.1976190060377121 0.2529889941215515 -0.1269489973783493 0.12236200273036957 -0.11804399639368057 -0.20660699903964996 0.2063480019569397 -0.4275999963283539 0.39614900946617126 0.0741640031337738 -0.11630100011825562 -0.13791599869728088 -0.3478359878063202 0.1002580001950264 -0.6354489922523499 -0.40956899523735046 -0.026340000331401825 0.5962049961090088 -0.037981998175382614 -0.16009899973869324 0.17635199427604675 -0.15224799513816833 0.23507900536060333 -0.4806959927082062 0.14803899824619293 -0.543865978717804 -0.3894219994544983 -0.13405099511146545 -0.11100500077009201 -0.3098300099372864 -0.031787000596523285 0.07718999683856964 -0.3165769875049591 -0.5787010192871094 -0.12468499690294266 0.09805300086736679 0.20144100487232208 -0.15126200020313263 0.009298999793827534 -0.15242899954319 0.09869600087404251 -0.3179439902305603 0.0016899999463930726 -0.006138000171631575 -0.03455999866127968 0.29085999727249146 0.3968310058116913 -0.2353390008211136 -0.21323400735855103 0.2518700063228607 0.10128600150346756 -0.1310330033302307 -0.0800509974360466 0.31200501322746277 -0.08884300291538239 0.03057200089097023 0.10533999651670456 0.025848999619483948 0.15026399493217468 0.2454719990491867 0.13050100207328796 0.2421109974384308 -0.5801270008087158 0.29996898770332336 0.36019599437713623 0.19783499836921692 0.021511999890208244 0.5317540168762207 -0.14100399613380432 -0.3037950098514557 -0.35192400217056274 -0.13563799858093262 -0.3573949933052063 0.08197899907827377 0.23520100116729736 0.1462630033493042 0.04322599992156029 0.2520410120487213 0.3523699939250946 -0.15980100631713867 -0.19348900020122528 0.227292001247406 -0.36152398586273193 0.08160900324583054 0.09281700104475021 0.34108299016952515 -0.1805880069732666 0.04548000171780586 0.2730399966239929 -0.11247900128364563 -0.15403400361537933 -0.09194900095462799 0.13450300693511963 -0.4260160028934479 -0.06429599970579147 -0.01808599941432476 -0.14807699620723724 -0.10565300285816193 -0.013042000122368336 -0.3423210084438324 -0.18324600160121918 -0.3311760127544403 0.19867800176143646 -0.27320098876953125 0.18036599457263947 0.0050200000405311584 -0.5456410050392151 0.38100799918174744 0.1550389975309372 -0.0013470000121742487 -0.23442299664020538 -0.012618999928236008 -0.21682099997997284 0.0782100036740303 0.11474300175905228 0.02400900050997734 -0.15516600012779236 -0.15861399471759796 0.17952199280261993 0.2804279923439026 -0.551468014717102 0.3224410116672516 0.0743509978055954 0.06745599955320358 0.45108500123023987 0.28068798780441284 0.3445880115032196 0.0626939982175827 -0.13682499527931213 -0.14518100023269653 -0.17619900405406952 0.020062999799847603 0.06660299748182297 -0.301470011472702 -0.05403900146484375 -0.3570530116558075 0.41091400384902954 -0.5818359851837158 0.03541500121355057 -0.30069801211357117 -0.1223519966006279 0.12339700013399124 0.09044100344181061 0.6002219915390015 0.05101900175213814 0.06832599639892578 0.04317599907517433 -0.15769700706005096 0.12872199714183807 0.1511469930410385 -0.1910189986228943 0.5111759901046753 -0.1819629967212677 0.3564879894256592 0.025191999971866608 0.165134996175766 -0.08328299969434738 0.19223999977111816 0.043855998665094376 0.4302290081977844 0.2546229958534241 0.2064560055732727 -0.1362210065126419 -0.10079000145196915 0.17424599826335907 0.10716699808835983 0.02559100091457367 -0.027045000344514847 0.4083229899406433 -0.12002100050449371 -0.0370279997587204 -0.09934499859809875 0.29873499274253845 -0.23966200649738312 -0.09633500128984451 0.00940100010484457 -0.0028649999294430017 -0.3304310142993927 0.40698501467704773 0.01068700011819601 0.23737899959087372 0.17764399945735931 0.2030390053987503 -0.13691799342632294 -0.00977800041437149 0.3376930058002472 0.1662829965353012 -0.07252900302410126 -0.022962000221014023 0.1668339967727661 0.09957200288772583 -0.09509699791669846 0.38058900833129883 0.22230100631713867 0.11193600296974182 -0.36877501010894775 -0.061195001006126404 0.026480000466108322 0.3063659965991974 0.08674799650907516 0.39505401253700256 -0.3044910132884979 0.5904359817504883 0.021774999797344208 -0.09087099879980087 0.1887110024690628 -0.13048699498176575 -0.352400004863739 0.1401980072259903 0.1544339954853058 0.21461200714111328 0.1864739954471588 -0.06498400121927261 0.03327000141143799 -0.31037598848342896 0.17739999294281006 0.0297240000218153 0.03951000049710274
相互 -0.10404700040817261 -0.4673509895801544 0.023322999477386475 0.0178459994494915 -0.5686699748039246 0.4666700065135956 0.2959040105342865 -0.30737000703811646 0.29440799355506897 0.37404999136924744 -0.1640940010547638 -0.09681899845600128 -0.027634000405669212 -0.2064090073108673 -0.1305370032787323 0.23010499775409698 0.07486999779939651 0.2810159921646118 -0.21521100401878357 0.060798000544309616 0.4063510000705719 -0.5243420004844666 -0.02521900087594986 -0.292261004447937 -0.1210469976067543 0.1437319964170456 0.2146729975938797 0.0911249965429306 -0.3829750120639801 0.03946299850940704 -0.21757900714874268 0.22632800042629242 -0.23163099586963654 0.2360289990901947 0.0674239993095398 -0.27001500129699707 0.17239099740982056 0.3403970003128052 -0.2144629955291748 0.27022498846054077 -0.02112000063061714 0.18897700309753418 0.11000899970531464 0.18309099972248077 0.04047499969601631 0.01435799989849329 -0.37667301297187805 -0.32258298993110657 -0.033319998532533646 0.004435999784618616 0.546222984790802 0.23262999951839447 -0.06954900175333023 -0.34366101026535034 0.4111959934234619 -0.3984780013561249 -0.13958899676799774 -0.3800930082798004 -0.20072300732135773 0.4571950137615204 0.19096499681472778 -0.21165600419044495 -0.03144099935889244 0.44514399766921997 0.2799069881439209 -0.04329000040888786 0.03084399923682213 0.13192200660705566 -0.08414100110530853 0.5014989972114563 -0.06029900163412094 0.21112999320030212 0.355989009141922 -0.2981399893760681 0.15897199511528015 -0.4595080018043518 0.10211499780416489 0.0802759975194931 0.2681420147418976 0.030487999320030212 -0.38716399669647217 0.14722800254821777 0.23463399708271027 0.45674699544906616 0.09270700067281723 -0.08346199989318848 -0.1118599995970726 0.14758099615573883 0.10707200318574905 -0.13098999857902527 0.3820520043373108 0.09801600128412247 -0.38916099071502686 -0.28199800848960876 -0.3361620008945465 0.161313995718956 0.05690300092101097 -0.6977699995040894 0.07808700203895569 0.44249799847602844 -0.07885599881410599 0.12273900210857391 0.2489819973707199 0.15216700732707977 0.04093899950385094 -0.3509509861469269 0.10685399919748306 -0.3363009989261627 -0.39569199085235596 0.09046199917793274 -0.20054499804973602 0.12810799479484558 -0.17094700038433075 0.04304800182580948 0.33895400166511536 -0.5778689980506897 -0.013005999848246574 0.3912169933319092 0.1975950002670288 -0.4496450126171112 0.10500100255012512 0.02736400067806244 -0.2133380025625229 -0.29594001173973083 -0.06062199920415878 0.1332480013370514 -0.29695799946784973 0.00880299974232912 0.15380699932575226 0.10705599933862686 -0.6301109790802002 0.4659700095653534 0.17815999686717987 -0.23448100686073303 -0.03167400136590004 0.3637959957122803 0.10052499920129776 0.06464699655771255 0.10143200308084488 0.17637699842453003 -0.1624870002269745 0.07360299676656723 0.30743399262428284 -0.27938899397850037 -0.6504849791526794 0.10091199725866318 0.3965330123901367 -0.22378100454807281 -0.07886599749326706 0.5896289944648743 0.19357000291347504 -0.14419600367546082 -0.44533899426460266 0.14880900084972382 -0.10681000351905823 -0.6870080232620239 0.07307399809360504 -0.09528700262308121 0.008275999687612057 -0.07458599656820297 0.12255799770355225 -0.04699699953198433 0.010286999866366386 -0.10775300115346909 -0.770425021648407 -0.19464799761772156 -0.10223399847745895 0.09027799963951111 -0.4022369980812073 -0.18838399648666382 -0.25466999411582947 -0.23126600682735443 -0.027442000806331635 -0.0500200018286705 0.34486499428749084 -0.5813459753990173 0.34831899404525757 0.00987400021404028 0.1308870017528534 -0.18821300566196442 -0.24189500510692596 -0.564087986946106 -0.2246900051832199 -0.15832599997520447 0.19625799357891083 -0.2551870048046112 0.15062099695205688 0.2367659956216812 -0.26069700717926025 0.39341598749160767 -0.2115360051393509 0.005843999795615673 -0.2522040009498596 0.07060199975967407 -0.24981699883937836 -0.2208690047264099 0.33042100071907043 0.043136999011039734 -0.1081399992108345 0.2798379957675934 0.0873590037226677 -0.04048499837517738 -0.21289999783039093 0.5112519860267639 -0.01986199989914894 0.25015899538993835 0.14941799640655518 0.39069700241088867 0.17913000285625458 -0.22453999519348145 0.12411700189113617 0.0637269988656044 0.2273319959640503 -0.3846980035305023 0.2096720039844513 0.03145499899983406 -0.3090380132198334 -0.184688001871109 -0.041370999068021774 -0.3293299973011017 0.015482000075280666 -0.09446799755096436 -0.12570999562740326 0.14813800156116486 0.1395370066165924 0.7293469905853271 0.16686899960041046 -0.02538600005209446 0.06373599916696548 0.07692699879407883 0.2006099969148636 0.3878389894962311 -0.3842819929122925 0.2715289890766144 -0.27942198514938354 0.2958349883556366 0.5303360223770142 -0.31058698892593384 -0.20664900541305542 0.1704220026731491 -0.12959200143814087 0.7173699736595154 0.18119299411773682 0.23298099637031555 0.3286289870738983 0.0643559992313385 -0.23607100546360016 0.06770399957895279 0.16396400332450867 -0.16865099966526031 -0.13829399645328522 -0.5052189826965332 -0.14511899650096893 0.06527899950742722 0.16360199451446533 0.01179799996316433 0.1478559970855713 -0.24134600162506104 0.2692529857158661 -0.4785580039024353 0.07676900178194046 0.16671599447727203 0.15783199667930603 -0.15495799481868744 0.42240700125694275 -0.27008599042892456 0.10386399924755096 0.5786219835281372 -0.14600400626659393 0.2979130148887634 -0.017653999850153923 0.6088500022888184 -0.12944599986076355 -0.016915999352931976 -0.004228999838232994 0.07592199742794037 -0.11411699652671814 -0.2334280014038086 0.11151999980211258 0.16520899534225464 0.44796299934387207 0.10324700176715851 0.16959600150585175 -0.16295099258422852 0.5599039793014526 -0.10151900351047516 -0.16075499355793 0.08385200053453445 -0.12827999889850616 -0.10571300238370895 0.01645899936556816 0.5244560241699219 0.03702700138092041 0.12538699805736542 -0.033059000968933105 -0.13560399413108826 -0.11760099977254868 0.052035000175237656 0.13760000467300415 0.26652801036834717
依存 0.04637200012803078 -0.306549996137619 -0.30553901195526123 0.20691199600696564 -0.5433269739151001 0.3002550005912781 0.5035359859466553 -0.7345690131187439 -0.09415499866008759 -0.0761990025639534 -0.30926600098609924 0.32690000534057617 0.1359809935092926 0.34494999051094055 -0.25601398944854736 0.07730799913406372 0.023984000086784363 0.3403269946575165 0.18132099509239197 -0.19587400555610657 0.34877198934555054 -0.5751019716262817 0.48337599635124207 -0.0006859999848529696 -0.23606500029563904 0.3595449924468994 -0.21728099882602692 0.005475999787449837 0.3456299901008606 0.4332070052623749 -0.11434800177812576 0.4119449853897095 -0.15235400199890137 0.26862600445747375 0.34095001220703125 -0.10190600156784058 -0.6206910014152527 0.22772599756717682 -0.2104640007019043 0.5342789888381958 -0.44339999556541443 -0.19353599846363068 0.2606860101222992 0.20358799397945404 0.33841100335121155 0.13436199724674225 -0.37949299812316895 -0.4535439908504486 0.07354699820280075 -0.055723998695611954 0.20332300662994385 0.08818600326776505 0.291718989610672 -0.20463499426841736 0.34892600774765015 -0.2851029932498932 0.014783999882638454 -0.4967760145664215 -0.24260400235652924 0.16722199320793152 0.24226799607276917 -0.13963599503040314 0.11736299842596054 0.37953901290893555 0.08056999742984772 0.24955600500106812 -0.18946799635887146 0.3661409914493561 0.01619900017976761 0.050732001662254333 -0.21752500534057617 -0.006974999792873859 -0.015162999741733074 0.23317499458789825 0.533374011516571 -0.5276449918746948 -0.007218000013381243 -0.03348499909043312 -0.2600260078907013 0.14875799417495728 -0.3407289981842041 -0.2649550139904022 0.41567298769950867 0.4039199948310852 0.050884000957012177 -0.05878400057554245 -0.26924198865890503 0.11266700178384781 -0.12748099863529205 -0.3915899991989136 0.09436699748039246 -0.011363999918103218 -0.18215499818325043 -0.13527700304985046 -0.26489898562431335 -0.40753600001335144 -0.090379998087883 -0.5323190093040466 0.5682600140571594 0.03801500052213669 0.00891099963337183 0.0689919963479042 -0.08065900206565857 -0.06162099912762642 0.4694490134716034 -0.06003599986433983 -0.07460500299930573 -0.10072000324726105 -0.42144501209259033 0.07414700090885162 0.29022300243377686 0.2864370048046112 0.08187100291252136 -0.10204499959945679 -0.14723600447177887 -0.5493749976158142 0.025983000174164772 0.4433009922504425 0.28684499859809875 -0.36218398809432983 0.16787099838256836 0.23469999432563782 0.22764599323272705 0.09944699704647064 -0.16125600039958954 0.15362100303173065 -0.1702899932861328 -0.15633699297904968 -0.4133409857749939 -0.17871099710464478 -0.13090600073337555 0.0997840017080307 -0.39471200108528137 0.18819500505924225 0.003955999854952097 0.3506450057029724 -0.5201529860496521 -0.04391299933195114 -0.021743999794125557 0.1621900051832199 -0.1900230050086975 0.11017099767923355 0.19062399864196777 -0.2744239866733551 -0.7253190279006958 0.04313100129365921 0.4992940127849579 0.0953650027513504 -0.03256800025701523 0.11504899710416794 0.2881210148334503 0.05292300134897232 0.38928699493408203 -0.025118999183177948 0.04926599934697151 -0.8563640117645264 0.032547999173402786 0.10854999721050262 -0.026328999549150467 0.11699400097131729 -0.3863289952278137 -0.48947298526763916 0.017396999523043633 0.2751980125904083 -0.2326579988002777 0.08440300077199936 0.19569699466228485 -0.10229499638080597 -0.4233419895172119 -0.061879999935626984 0.13533399999141693 -0.24946899712085724 0.1828649938106537 -0.10041800141334534 0.1463949978351593 -0.11099100112915039 0.20892800390720367 -0.20590700209140778 0.2468319982290268 0.061351001262664795 -0.6523709893226624 -0.7322900295257568 -0.12195499986410141 -0.43286800384521484 0.06552000343799591 -0.3676320016384125 0.2974730134010315 0.4265519976615906 0.17036999762058258 0.11710400134325027 0.4740470051765442 -0.24926500022411346 -0.44067901372909546 -0.48184001445770264 -0.1484210044145584 0.007996000349521637 0.08046600222587585 -0.1334889978170395 -0.1793929934501648 0.07858499884605408 -0.027247000485658646 0.46649599075317383 -0.3437800109386444 0.3409300148487091 0.0181489996612072 0.43654298782348633 -0.14789600670337677 -0.04223199933767319 0.3182840049266815 -0.044530998915433884 -0.16610999405384064 -0.029656000435352325 -0.058928001672029495 -0.027730999514460564 0.07755500078201294 0.21660499274730682 -0.10764399915933609 -0.12246699631214142 0.12337099760770798 -0.18243899941444397 -0.12070900201797485 -0.3026210069656372 0.27488499879837036 0.4969039857387543 0.16364000737667084 0.6437270045280457 -0.08222199976444244 0.004902000073343515 0.31496700644493103 -0.013931999914348125 0.23518100380897522 0.20985199511051178 0.015591000206768513 -0.303523987531662 0.2216850072145462 0.13583600521087646 0.42758700251579285 -0.22329899668693542 -0.45757800340652466 0.4395340085029602 0.03385400027036667 0.5869240164756775 0.21232299506664276 0.575993001461029 0.21852199733257294 0.09711500257253647 0.046348001807928085 0.233597993850708 0.012242999859154224 0.16171100735664368 0.3088749945163727 0.033907998353242874 -0.24782399833202362 -0.12455999851226807 -0.18760399520397186 -0.10841400176286697 0.17338700592517853 -0.2175460010766983 -0.03317200019955635 -0.2659899890422821 0.1832520067691803 -0.16120199859142303 0.24814000725746155 0.2533850073814392 -0.09064099937677383 -0.1802310049533844 0.056290000677108765 0.15236899256706238 -0.17899200320243835 0.42889299988746643 0.007930000312626362 0.2817310094833374 0.27253299951553345 -0.09890899807214737 0.15059000253677368 0.0060709998942911625 0.07012300193309784 -0.2942489981651306 0.08122800290584564 0.1219329982995987 0.4059709906578064 -0.18120500445365906 -0.3219349980354309 -0.2151769995689392 -0.039062999188899994 0.10088499635457993 0.13748799264431 0.2853020131587982 -0.15465900301933289 -0.2547360062599182 0.36299800872802734 0.14355699717998505 0.323870986700058 0.14748899638652802 -0.0751200020313263 0.40407100319862366 -0.08557700365781784 -0.022305000573396683 0.44821301102638245 -0.15898099541664124
相互依存 0.2967909872531891 -0.19789600372314453 -0.06812400370836258 0.399960994720459 -0.2594360113143921 0.49637600779533386 0.7982079982757568 -0.6052070260047913 0.2515299916267395 0.23212599754333496 -0.2140049934387207 0.07541300356388092 0.2166769951581955 -0.22637300193309784 -0.5003569722175598 -0.2915419936180115 -0.0035699999425560236 0.7060319781303406 0.09865300357341766 -0.04959399998188019 0.4654960036277771 -0.25794699788093567 0.10333099961280823 -0.3054620027542114 -0.1361829936504364 0.3212049901485443 0.10434199869632721 0.09719199687242508 0.035034000873565674 0.007209999952465296 -0.06181599944829941 -0.09940599650144577 -0.017335999757051468 -0.14505599439144135 0.39428699016571045 -0.0946739986538887 -0.19261600077152252 0.29788899421691895 0.041940998286008835 0.10243599861860275 -0.06431599706411362 -0.26879599690437317 0.15035299956798553 -0.11121399700641632 0.08429799973964691 -0.04119599983096123 -0.5208140015602112 -0.08578299731016159 0.012629999779164791 0.0016339999856427312 0.788004994392395 0.14120100438594818 0.38736799359321594 -0.4274199903011322 0.4216110110282898 -0.4416140019893646 -0.059119999408721924 -0.19441699981689453 -0.44093000888824463 0.19362899661064148 -0.00675999978557229 -0.23573899269104004 0.007631999906152487 0.3711720108985901 0.2316170036792755 0.0811149999499321 0.09209699928760529 -0.1597989946603775 0.43559300899505615 0.5823000073432922 -0.14465999603271484 -0.09121499955654144 0.0164209995418787 -0.07489100098609924 0.17056399583816528 -0.3885290026664734 0.11372199654579163 0.10702499747276306 -0.22280199825763702 0.23424600064754486 -0.5199450254440308 -0.08837699890136719 -0.028311999514698982 0.19729700684547424 -0.3145669996738434 -0.2537510097026825 -0.6153479814529419 0.08726199716329575 0.11850299686193466 -0.5280290246009827 0.47781801223754883 0.31010499596595764 -0.013755000196397305 -0.18571700155735016 0.22282199561595917 0.13353100419044495 0.05437599867582321 -0.46267399191856384 0.24337799847126007 -0.1488730013370514 0.048055000603199005 0.039372000843286514 -0.19335399568080902 0.011575000360608101 0.4781070053577423 -0.26548200845718384 0.29189300537109375 -0.2833530008792877 0.12334100157022476 0.06680499762296677 -0.04133699834346771 0.017595000565052032 -0.25330498814582825 -0.3320850133895874 0.14684699475765228 -0.8235419988632202 -0.11421400308609009 0.47022199630737305 0.3643980026245117 -0.18337200582027435 0.30942800641059875 -0.0790020003914833 -0.37213999032974243 -0.11604200303554535 -0.22367000579833984 0.32709801197052 -0.15902400016784668 -0.05545699968934059 0.01433700043708086 0.18781299889087677 -0.3227519989013672 -0.09936799854040146 0.08337800204753876 -0.049796998500823975 0.08878500014543533 0.10464999824762344 -0.12905000150203705 -0.3689430058002472 -0.04571099951863289 0.3116140067577362 -0.29478898644447327 0.03826199844479561 0.18150100111961365 0.05045299977064133 -0.2402079999446869 -0.01004400011152029 0.5065860152244568 0.2519550025463104 0.024157000705599785 0.49191999435424805 0.08233200013637543 0.04331099987030029 -0.4245379865169525 -0.17121200263500214 -0.01498399954289198 -0.42367199063301086 -0.07276099920272827 -0.2365649938583374 -0.3259730041027069 0.02749199979007244 0.37700599431991577 0.05025399848818779 0.0037299999967217445 0.27678099274635315 0.04718099907040596 0.2071080058813095 -0.13797999918460846 0.01683799922466278 -0.26423901319503784 -0.12519900500774384 0.12101700156927109 -0.08406499773263931 0.14643999934196472 0.03368400037288666 0.12050999701023102 -0.5271720290184021 0.12441600114107132 -0.19775299727916718 0.21223600208759308 -0.13506199419498444 -0.4627789855003357 -0.44203901290893555 -0.2399190068244934 -0.5437989830970764 0.13776299357414246 0.008750000037252903 0.11365199834108353 0.1956530064344406 -0.3507930040359497 0.21785899996757507 0.6462820172309875 -0.32330799102783203 -0.21683600544929504 0.21907900273799896 -0.16977399587631226 0.056758999824523926 0.32244500517845154 0.0005189999938011169 0.18097999691963196 -0.06206899881362915 0.0919089987874031 0.47676798701286316 -0.506633996963501 0.8126260042190552 -0.020409999415278435 0.3324680030345917 0.09811600297689438 0.600400984287262 0.4769270122051239 -0.12207899987697601 0.12211400270462036 -0.005861999932676554 0.1652739942073822 -0.39761701226234436 0.11272499710321426 -0.3157309889793396 -0.036382000893354416 0.2060759961605072 0.09706699848175049 -0.23919199407100677 -0.24220800399780273 -0.2375209927558899 0.04613500088453293 0.14971700310707092 0.06848199665546417 0.7487509846687317 0.009541000239551067 -0.41616401076316833 -0.07273899763822556 0.0650940015912056 0.12208099663257599 0.3158870041370392 -0.19234299659729004 0.4794749915599823 0.13405999541282654 0.09007500112056732 0.42856600880622864 -0.00797600019723177 -0.6349350214004517 0.1896660029888153 -0.2815690040588379 0.6208410263061523 0.14586800336837769 0.6058269739151001 0.01673699915409088 -0.14290200173854828 -0.012230000458657742 0.24444599449634552 0.17568199336528778 -0.2958129942417145 0.22682300209999084 0.17246699333190918 -0.44930300116539 -0.1594959944486618 -0.08314800262451172 -0.015814999118447304 0.06666799634695053 -0.45122000575065613 0.3332740068435669 -0.1820099949836731 0.010294999927282333 0.15837599337100983 0.37506699562072754 0.02118000015616417 0.13760900497436523 -0.0388140007853508 0.4532630145549774 0.5902829766273499 -0.4424560070037842 0.3218590021133423 0.28310900926589966 0.4376400113105774 0.19830100238323212 0.08399400115013123 -0.02464199997484684 -0.03098299913108349 -0.08979400247335434 -0.11000599712133408 -0.06376200169324875 -0.06595300137996674 0.040856000036001205 -0.09268199652433395 -0.1262570023536682 -0.49041199684143066 0.26343899965286255 -0.21740299463272095 0.27692899107933044 -0.14690299332141876 0.1283860057592392 -0.2983720004558563 0.32099199295043945 0.343531996011734 -0.18174999952316284 -0.04684099927544594 -0.038669999688863754 0.22234900295734406 -0.08323600143194199 0.07283899933099747 0.026724999770522118 -0.2762170135974884
关系 0.28215301036834717 0.018022000789642334 -0.23430299758911133 0.11992000043392181 -0.15297900140285492 0.2660599946975708 0.5527179837226868 -0.3564389944076538 0.035656001418828964 -0.058341000229120255 -0.22979199886322021 0.05485299974679947 0.11020199954509735 0.19426199793815613 -0.3189310133457184 -0.3042309880256653 0.48253899812698364 0.6802530288696289 -0.0678659975528717 -0.3156290054321289 0.2090339958667755 -0.18025900423526764 -0.14914099872112274 -0.26390498876571655 -0.39146101474761963 0.213577002286911 0.0925389975309372 -0.240789994597435 -0.4407300055027008 0.11287300288677216 0.17862600088119507 0.08355700224637985 -0.004302999936044216 -0.07076600193977356 0.11062300205230713 -0.11186599731445312 -0.0961889997124672 -0.07880499958992004 -0.14299200475215912 0.21695899963378906 0.10146699845790863 -0.015305000357329845 -0.022468000650405884 -0.15811899304389954 0.19017599523067474 0.0931209996342659 -0.055413998663425446 -0.1973630040884018 -0.08441100269556046 0.030122000724077225 0.7280579805374146 0.09754499793052673 0.12861700356006622 -0.5450530052185059 -0.3777790069580078 0.14873600006103516 -0.03156200051307678 -0.4734160006046295 -0.6186109781265259 -0.032919999212026596 0.3917500078678131 0.1294260025024414 -0.10452199727296829 0.2563909888267517 -0.10938800126314163 -0.06933700293302536 -0.42957401275634766 -0.26113998889923096 0.1229420006275177 0.8905860185623169 -0.12176699936389923 -0.11176300048828125 0.47196701169013977 0.10565999895334244 0.3615550100803375 -0.6251469850540161 0.012684999965131283 -0.022572999820113182 -0.2121579945087433 0.09831199795007706 0.06528899818658829 -0.1844789981842041 0.25904399156570435 -0.12066099792718887 -0.17586800456047058 -0.28412801027297974 -0.17159099876880646 0.17045800387859344 0.08459699898958206 -0.607246994972229 0.07202599942684174 0.15048399567604065 -0.06595700234174728 -0.4867730140686035 -0.1009640023112297 -0.2659820020198822 -0.3058060109615326 -0.20091299712657928 0.31940099596977234 -0.042987000197172165 0.27121400833129883 0.26699501276016235 -0.05247199907898903 0.26700401306152344 0.14860600233078003 -0.46794599294662476 0.29120299220085144 0.011404000222682953 0.13955600559711456 0.03926900029182434 -0.25344499945640564 -0.10413499921560287 -0.014285000041127205 -0.17348699271678925 -0.15938399732112885 -0.41290000081062317 -0.11506099998950958 0.005553000140935183 0.21479299664497375 -0.2512330114841461 -0.0017640000442042947 0.03708599880337715 -0.15903499722480774 -0.1671060025691986 -0.1515129953622818 0.3206160068511963 0.1600780040025711 0.17739300429821014 -0.07946199923753738 0.18205000460147858 -0.3459770083427429 0.02734299935400486 -0.20860600471496582 0.0963359996676445 -0.20763200521469116 0.2036290019750595 -0.08565200120210648 -0.2047490030527115 -0.0015930000226944685 0.1705169975757599 -0.017201000824570656 -0.003828000044450164 -0.07882899791002274 -0.29296600818634033 -0.27448999881744385 0.31570300459861755 -0.1600009948015213 0.3134610056877136 0.024985000491142273 0.4945490062236786 0.08105400204658508 0.43706798553466797 -0.2335759997367859 0.008674999698996544 0.08935999870300293 -0.05086899921298027 0.11190199851989746 0.3012239933013916 0.034758999943733215 -0.10526400059461594 0.12429100275039673 0.028589000925421715 0.0899529978632927 0.25909799337387085 0.05014200136065483 -0.06405399739742279 -0.09052100032567978 0.16474899649620056 0.13620999455451965 -0.18953299522399902 0.21038700640201569 -0.29726698994636536 -0.27327099442481995 -0.017430000007152557 0.3543969988822937 -0.043887000530958176 0.08533000200986862 -0.04140299931168556 0.28311100602149963 0.051183998584747314 -0.011868000030517578 0.03305299952626228 -0.0974849984049797 -0.3909569978713989 0.17639799416065216 0.03267500177025795 0.5142809748649597 0.18702000379562378 -0.23558400571346283 0.1943420022726059 0.16099800169467926 0.157042995095253 -0.18743999302387238 -0.2188110053539276 -0.13668499886989594 -0.07627099752426147 0.15986600518226624 0.03673199936747551 -0.07572600245475769 -0.32840201258659363 0.0737290009856224 0.23580500483512878 -0.3037489950656891 0.32245200872421265 0.011641000397503376 0.048308998346328735 0.1838569939136505 0.4267899990081787 0.36942601203918457 -0.20520299673080444 0.15117600560188293 0.14036299288272858 -0.12866100668907166 -0.2945689857006073 0.15597200393676758 -0.16419300436973572 0.032333001494407654 -0.026086999103426933 0.38680100440979004 -0.4850339889526367 -0.3239249885082245 -0.2627120018005371 -0.019398000091314316 0.22962400317192078 -0.21517899632453918 0.40850499272346497 0.054207999259233475 -0.28898099064826965 0.3023799955844879 -0.16424399614334106 -0.20444099605083466 0.10098399966955185 -0.1518010050058365 0.1714410036802292 0.07365799695253372 -0.04409800097346306 0.20985999703407288 0.09007299691438675 0.021662000566720963 0.5158960223197937 -0.2184859961271286 0.5605610013008118 -0.08212800323963165 0.20047800242900848 -0.05676800012588501 -0.17684200406074524 -0.20643800497055054 0.5818759799003601 0.04033999890089035 -0.13797999918460846 0.3133620023727417 -0.2086859941482544 -0.17660200595855713 0.07946699857711792 0.2147430032491684 0.3290390074253082 0.16485300660133362 -0.3759469985961914 -0.2114419937133789 -0.028774000704288483 -0.028074000030755997 -0.35697099566459656 -0.03637300059199333 0.3037239909172058 0.19645899534225464 -0.023970000445842743 0.06713200360536575 0.3467870056629181 0.060318998992443085 -0.040052998811006546 0.09516599774360657 0.34633201360702515 0.1338530033826828 -0.010506999678909779 -0.2326039969921112 0.20243699848651886 0.26979801058769226 -0.34303098917007446 0.0460829995572567 0.10382399708032608 0.048920001834630966 -0.15051500499248505 0.02758600004017353 0.2567160129547119 0.24665500223636627 -0.04938099905848503 -0.045756999403238297 0.2322549968957901 -0.3041340112686157 -0.40046000480651855 0.16387200355529785 0.11816100031137466 0.06850499659776688 0.12062299996614456 -0.4337959885597229 0.19274699687957764 -0.23749400675296783 -0.01375299971550703 0.1651969999074936 0.2251020073890686
分析 0.16567599773406982 0.1328669935464859 0.040240999311208725 -0.11143899708986282 -0.3457379937171936 0.2240239977836609 0.36319899559020996 -0.08739600330591202 0.08085999637842178 0.12807099521160126 -0.13849100470542908 -0.058083999902009964 0.2103540003299713 0.10964100062847137 -0.06946200132369995 -0.13067400455474854 0.25567498803138733 0.07865999639034271 -0.08515200018882751 0.18855200707912445 -0.0850439965724945 -0.28911998867988586 0.25865399837493896 -0.43873000144958496 -0.1557680070400238 -0.04883800074458122 0.035016998648643494 0.08115900307893753 0.06307700276374817 -0.1603119969367981 0.2735080122947693 0.1114249974489212 0.0018860000418499112 0.14252300560474396 0.16099800169467926 0.09638799726963043 -0.003034000052139163 0.06861100345849991 0.08881500363349915 -0.004798999987542629 0.10011299699544907 -0.21019099652767181 -0.04176599904894829 -0.27397701144218445 0.13245899975299835 -0.3688879907131195 0.13797800242900848 -0.29036998748779297 0.16234800219535828 -0.19671200215816498 0.17270900309085846 0.11698900163173676 0.28917500376701355 -0.24848699569702148 -0.25497299432754517 0.03197000175714493 -0.29183700680732727 -0.08517300337553024 -0.3121910095214844 0.27682098746299744 0.26675599813461304 -0.3012950122356415 0.3068169951438904 -0.0007110000005923212 0.13554400205612183 -0.07532499730587006 -0.10736200213432312 -0.35375601053237915 -0.045504000037908554 0.250014990568161 -0.4131479859352112 -0.19806399941444397 -0.4555189907550812 0.025622999295592308 0.2717599868774414 -0.4001289904117584 0.2879579961299896 0.1464349925518036 0.029844999313354492 0.02276499941945076 -0.15255899727344513 -0.21305300295352936 -0.2094610035419464 0.0183119997382164 -0.23576399683952332 0.1176460012793541 -0.10630200058221817 0.7708520293235779 0.20218299329280853 0.11298800259828568 0.08407100290060043 -0.1381720006465912 -0.2838580012321472 -0.4015040099620819 -0.32327800989151 0.022283999249339104 -0.1937510073184967 -0.2295379936695099 0.1251869946718216 -0.18806900084018707 0.3078460097312927 0.03546600043773651 0.04647200182080269 -0.005603000055998564 -0.030167000368237495 -0.3281410038471222 -0.24637000262737274 0.151419997215271 -0.16063399612903595 0.5690590143203735 -0.17631100118160248 0.39718401432037354 -0.291359007358551 -0.23863999545574188 0.048392001539468765 -0.001294999965466559 -0.21952199935913086 0.09329000115394592 0.41296398639678955 -0.07315699756145477 -0.2516860067844391 -0.015282000415027142 0.11324600130319595 0.30853700637817383 -0.024594999849796295 0.4547500014305115 -0.11949300020933151 0.09384900331497192 0.5059340000152588 0.2248850017786026 -0.37028899788856506 0.040219999849796295 -0.28045400977134705 0.05827099829912186 -0.017393000423908234 0.4518420100212097 -0.019213000312447548 -0.04083000123500824 -0.06843400001525879 0.16332699358463287 0.06533200293779373 -0.22228200733661652 -0.37793800234794617 -0.13176999986171722 -0.06098699942231178 0.19640499353408813 0.06473600119352341 -0.1344829946756363 0.16585299372673035 -0.015968000516295433 0.12787799537181854 0.37982699275016785 0.25818198919296265 0.04416399821639061 0.003872999921441078 0.12699300050735474 -0.04353500157594681 -0.11049500107765198 -0.0264079999178648 0.08440899848937988 0.0358549989759922 -0.1656080037355423 0.3502059876918793 -0.06757599860429764 0.1815429925918579 0.3079020082950592 0.13923299312591553 -0.4193649888038635 0.18127399682998657 -0.14977000653743744 0.2796120047569275 -0.13948599994182587 0.15887300670146942 -0.047628000378608704 0.12814199924468994 -0.26872798800468445 -0.18605700135231018 0.062313999980688095 -0.1939069926738739 0.22382299602031708 0.001066999975591898 -0.6411259770393372 -0.23402099311351776 -0.7456499934196472 -0.00506999995559454 0.28675100207328796 0.005663000047206879 0.25025299191474915 -0.2227959930896759 0.12383399903774261 -0.02746099978685379 -0.2611199915409088 0.2958360016345978 -0.25150200724601746 -0.19799600541591644 0.01820399984717369 0.22271400690078735 0.10690400004386902 -0.2715330123901367 -0.18609599769115448 0.10807699710130692 0.20659500360488892 -0.19201399385929108 0.37973499298095703 0.12853699922561646 -0.35486599802970886 0.30041998624801636 -0.17615699768066406 0.42900601029396057 -0.16134199500083923 0.3037340044975281 0.3576489984989166 -0.2945469915866852 -0.3445039987564087 0.1110450029373169 -0.12633800506591797 0.04681900143623352 0.042688000947237015 0.07968000322580338 0.057944998145103455 -0.09947899729013443 -0.4736050069332123 0.05353200063109398 0.2708919942378998 -0.04265400022268295 0.08007100224494934 -0.672918975353241 -0.5056859850883484 0.4641079902648926 -0.10644300282001495 0.05498500168323517 -0.1834239959716797 -0.12246499955654144 0.09663300216197968 0.45008501410484314 0.19582499563694 0.6508730053901672 -0.04140700027346611 -0.25758299231529236 -0.1818860024213791 -0.47404399514198303 0.05264800041913986 -0.16126200556755066 -0.2754429876804352 -0.17820100486278534 -0.05544000118970871 0.11625300347805023 -0.16047599911689758 -0.13628999888896942 -0.14530900120735168 0.21083100140094757 -0.22773399949073792 -0.16861900687217712 0.018363000825047493 0.02622699923813343 -0.15384599566459656 0.05763699859380722 -0.18413600325584412 0.13963499665260315 0.17303499579429626 0.4545210003852844 -0.23529000580310822 0.18433399498462677 0.2411320060491562 0.07493799924850464 -0.1150360032916069 0.1701429933309555 0.20976300537586212 -0.2363249957561493 0.14807799458503723 0.05615900084376335 0.6997950077056885 0.11016300320625305 0.15278099477291107 0.03469900041818619 0.4840349853038788 0.10449399799108505 0.23862800002098083 0.019742000848054886 -0.017734000459313393 0.25893500447273254 0.3087559938430786 -0.004031999967992306 -0.1756190061569214 0.3710690140724182 0.03364799916744232 0.1637199968099594 -0.2939490079879761 -0.37008601427078247 -0.30864399671554565 -0.14963200688362122 0.3820840120315552 0.1670839935541153 -0.2879500091075897 -0.10823000222444534 0.11280100047588348 -0.38332900404930115 0.26322299242019653 0.030584000051021576 -0.11535800248384476
是 -0.06843499839305878 0.08661200106143951 0.04101400077342987 -0.08002600073814392 0.018133999779820442 0.1515820026397705 0.3101719915866852 -0.0326169990003109 -0.06992799788713455 0.12559600174427032 0.03848300129175186 0.06306499987840652 0.1937350034713745 0.29233598709106445 -0.18346300721168518 -0.1093590036034584 0.11650999635457993 -0.011389999650418758 -0.2798770070075989 -0.07098399847745895 0.028936000540852547 0.11533600091934204 0.04974199831485748 -0.21618099510669708 -0.24643899500370026 0.393779993057251 0.11258800327777863 0.21273499727249146 0.06687899678945541 -0.06952899694442749 0.31685200333595276 0.039473000913858414 0.04526999965310097 0.07915200293064117 0.052267998456954956 0.08160500228404999 0.0006339999963529408 0.2493000030517578 -0.1481429934501648 0.2991499900817871 -0.05760600045323372 -0.12309800088405609 -0.04992799833416939 -0.16422900557518005 0.22025899589061737 -0.3012639880180359 -0.03705599904060364 0.179080992937088 0.15782099962234497 -0.0052709998562932014 0.3699899911880493 0.04088599979877472 -0.03696199879050255 0.09946499764919281 0.039445001631975174 -0.01838899962604046 0.27093300223350525 0.050992000848054886 -0.12895600497722626 -0.09057799726724625 0.23325000703334808 -0.06049799919128418 0.09135899692773819 0.07312600314617157 -0.09780299663543701 0.11300300061702728 -0.035624001175165176 -0.15983900427818298 -0.1716260015964508 -0.020791999995708466 -0.2488359957933426 -0.12304099649190903 0.06605499982833862 -0.01896899938583374 -0.013434999622404575 -0.4014100134372711 0.03416899964213371 0.17763499915599823 -0.042068999260663986 -0.02914999984204769 -0.14093400537967682 0.1387930065393448 -0.07883799821138382 -0.0786070004105568 -0.20619399845600128 0.06385000050067902 -0.087226003408432 0.18074500560760498 -0.3515560030937195 -0.24534699320793152 0.11002799868583679 0.18908700346946716 0.05316599830985069 -0.2517780065536499 -0.24487300217151642 -0.18789799511432648 -0.27765899896621704 0.03235999867320061 0.14786599576473236 -0.18343999981880188 -0.031334999948740005 -0.006031000055372715 -0.25407499074935913 -0.13678500056266785 0.2736389935016632 -0.05232299864292145 0.23413799703121185 -0.06587500125169754 -0.06467700004577637 0.5565540194511414 0.0072119999676942825 0.11302900314331055 -0.3075520098209381 -0.20706500113010406 -0.005357999820262194 -0.10172799974679947 -0.19762100279331207 0.014062000438570976 -0.19471199810504913 -0.09393700212240219 -0.09848199784755707 0.16254599392414093 0.08178000152111053 -0.06644699722528458 0.2217079997062683 0.10683400183916092 0.07930599898099899 0.03510800004005432 -0.0695199966430664 0.07939500361680984 0.02914999984204769 -0.09769400209188461 -0.10496199876070023 -0.16258199512958527 0.06645400077104568 0.019874999299645424 -0.058010000735521317 -0.14353500306606293 0.14635400474071503 0.08197499811649323 0.09795399755239487 0.06814900040626526 -0.17815500497817993 0.08068200200796127 -0.230445995926857 0.19523200392723083 0.10130900144577026 -0.06717199832201004 -0.1260789930820465 0.08210700005292892 0.33789199590682983 -0.04795999825000763 -0.1597059965133667 0.03966299816966057 0.008829999715089798 0.1199830025434494 0.21081599593162537 -0.0537480004131794 0.11644899845123291 -0.03249499946832657 -0.10622899979352951 -0.002374999923631549 -0.2331559956073761 0.1309320032596588 -0.13130700588226318 0.2099590003490448 0.14180399477481842 0.2456739991903305 0.0013279999839141965 -0.08623699843883514 0.22639000415802002 -0.042952001094818115 -0.09288500249385834 0.007108000107109547 0.19850200414657593 -0.3385469913482666 -0.13370800018310547 -0.1451359987258911 -0.04883300140500069 -0.017482999712228775 -0.17213399708271027 -0.09568700194358826 -0.04129299893975258 -0.1609259992837906 0.24357999861240387 -0.21301700174808502 -0.15778900682926178 -0.09785199910402298 -0.1608469933271408 0.13369999825954437 -0.1325960010290146 -0.025033000856637955 0.1438630074262619 -0.08514799922704697 0.1697539985179901 -0.13280299305915833 -0.2858380079269409 0.10276299715042114 0.016429999843239784 -0.13208599388599396 -0.16665300726890564 0.35617300868034363 0.08342599868774414 0.02602900005877018 -0.0015719999792054296 -0.08584599941968918 0.18201200664043427 -0.024667000398039818 0.10650400072336197 -0.2120410054922104 0.2718859910964966 -0.041398998349905014 -0.010200999677181244 -0.36529698967933655 0.00019500000053085387 -0.08067700266838074 -0.07492999732494354 -0.1745389997959137 0.18303899466991425 -0.328575998544693 -0.2917959988117218 -0.1530510038137436 -0.24391399323940277 -0.08386600017547607 -0.08482100069522858 0.3648959994316101 -0.019266000017523766 -0.05719500035047531 0.023770000785589218 -0.08553799986839294 0.10359500348567963 0.1938679963350296 -0.047887999564409256 -0.10913100093603134 -0.136571004986763 0.1876640021800995 0.2812789976596832 -0.003338000038638711 -0.18708300590515137 0.06591399759054184 0.007670000195503235 0.054221998900175095 -0.15633699297904968 0.10117500275373459 -0.11656200140714645 -0.2267249971628189 -0.16782799363136292 -0.14202100038528442 0.020736999809741974 0.12347300350666046 0.21158699691295624 -0.1594099998474121 0.09654100239276886 -0.30538201332092285 0.12684600055217743 -0.03355700150132179 -0.19361600279808044 0.11942700296640396 0.3504840135574341 -0.048114001750946045 -0.0844390019774437 0.030510999262332916 -0.012330999597907066 0.07595600187778473 0.2220049947500229 0.0864500030875206 0.17163999378681183 0.15461300313472748 0.1536480039358139 0.22724400460720062 0.18843300640583038 0.08156000077724457 -0.303413987159729 -0.2669770121574402 0.48850300908088684 -0.1370989978313446 -0.02745700068771839 0.1340550035238266 -0.15752799808979034 0.03705799952149391 -0.14505699276924133 -0.13076800107955933 -0.27621400356292725 -0.11104100197553635 0.1775760054588318 0.18503299355506897 0.041554998606443405 -0.09715999662876129 -0.046817000955343246 -0.2614249885082245 0.11886099725961685 0.21989400684833527 0.03568999841809273 0.45067098736763 0.01321600005030632 0.05291600152850151 -0.09809400141239166 -0.047359999269247055 0.05787799879908562 -0.11264599859714508
